SVM-light Version V6.20
0 # kernel type
3 # kernel parameter -d
1 # kernel parameter -g
1 # kernel parameter -s
1 # kernel parameter -r
empty# kernel parameter -u
768 # highest feature index
2 # number of training documents
2 # number of support vectors plus 1
0 # threshold b, each following line is a SV (starting with alpha*y)
1 1:1.782081e-06 2:3.8381777e-06 3:-9.2894479e-06 4:-4.4124525e-07 5:5.0384378e-06 6:4.6273558e-06 7:-1.2081146e-05 8:1.3793815e-05 9:-1.1821566e-05 10:-2.2745318e-05 11:2.6374209e-06 12:3.8577464e-06 13:1.5188928e-05 14:5.6203503e-06 15:2.5807326e-06 16:-6.3806556e-06 17:2.1302926e-06 18:6.7907004e-06 19:-2.1500902e-07 20:1.6996199e-05 21:-2.9360583e-05 22:1.4029205e-05 23:-1.275934e-05 24:-1.2982403e-05 25:-2.0628336e-06 26:2.9369103e-06 27:-2.2608335e-06 28:9.7189341e-06 29:-1.9155083e-05 30:-1.9348996e-05 31:3.9641754e-06 32:8.0750087e-06 33:4.878123e-06 34:-8.4295862e-06 35:-2.1209239e-06 36:1.6033408e-05 37:-2.4866133e-06 38:-1.4886663e-05 39:-3.3042224e-06 40:-1.626801e-05 41:2.3013312e-05 42:1.2229021e-05 43:-6.1151745e-06 44:-7.774559e-06 45:-5.9462837e-07 46:-9.2503606e-06 47:9.1509128e-06 48:-1.9369386e-06 49:-7.3901115e-06 50:2.1599733e-05 51:-1.7378909e-05 52:-1.976457e-05 53:4.3468699e-06 54:-1.6360755e-05 55:2.1916405e-05 56:-1.0110398e-05 57:-7.3338324e-06 58:-1.7920722e-05 59:4.4009435e-06 60:-1.675324e-05 61:-8.3899495e-06 62:8.4711537e-06 63:4.3901787e-06 64:-1.2102613e-05 65:-2.4855869e-06 66:-2.0323191e-06 67:2.1649741e-06 68:-1.0633325e-05 69:-4.7874978e-06 70:2.5147578e-05 71:-6.8137197e-06 72:4.1537817e-07 73:-6.9165202e-07 74:1.7965584e-05 75:-1.1869539e-05 76:-1.3961298e-05 77:6.3300999e-06 78:2.2702291e-06 79:4.4736021e-06 80:-1.1170662e-05 81:-6.9499383e-06 82:3.2968373e-06 83:4.3028572e-06 84:1.2467868e-05 85:2.2736908e-06 86:9.6610602e-06 87:1.7225822e-05 88:-1.2163334e-05 89:-1.7856666e-05 90:-2.0720354e-06 91:7.3232081e-06 92:1.4703006e-05 93:-9.8153805e-06 94:6.1990927e-06 95:7.4543182e-06 96:1.2892804e-05 97:7.9405982e-06 98:-8.4401681e-06 99:-1.4110957e-06 100:8.9903633e-06 101:1.8443036e-05 102:3.4065486e-06 103:3.3342001e-06 104:-3.1179263e-07 105:-1.639943e-05 106:4.8851639e-06 107:-1.7247794e-05 108:1.2898023e-05 109:-1.860054e-05 110:-9.5263495e-06 111:1.045523e-05 112:-1.0898278e-05 113:1.4403064e-06 114:7.6585275e-06 115:2.3404416e-05 116:3.3465703e-06 117:-2.7258541e-06 118:2.3467788e-05 119:1.1616782e-05 120:1.1720332e-05 121:6.8908475e-06 122:7.1933448e-07 123:-9.2965711e-06 124:2.6301807e-06 125:1.1069919e-05 126:-1.3431065e-06 127:-3.0070822e-07 128:1.7336437e-05 129:-1.9761561e-05 130:7.6788165e-06 131:1.6261976e-05 132:1.1776214e-05 133:4.0099249e-06 134:2.2783046e-05 135:1.2901567e-05 136:-1.6505928e-05 137:-2.7987314e-06 138:9.2593649e-07 139:8.9911427e-06 140:-3.7898844e-05 141:1.066658e-05 142:-1.1758553e-05 143:-1.3573676e-05 144:-1.2855911e-05 145:-7.5329222e-06 146:-2.7946418e-05 147:8.9926252e-06 148:-1.3983089e-05 149:9.0501198e-06 150:6.1984751e-06 151:7.6511405e-06 152:1.5189076e-05 153:7.3931706e-06 154:-1.6958815e-05 155:-1.4059654e-05 156:5.2794653e-06 157:3.1508243e-05 158:-7.4778968e-06 159:-2.1286443e-05 160:-4.3906257e-06 161:-1.2974572e-05 162:6.4343449e-06 163:1.1484638e-05 164:1.9946914e-05 165:5.727306e-06 166:1.5813802e-06 167:1.354344e-06 168:7.5983858e-06 169:-2.3994492e-06 170:1.2773623e-06 171:2.6139378e-06 172:-7.3187675e-06 173:1.0073993e-05 174:1.6108364e-05 175:-2.3783616e-06 176:-9.8571873e-06 177:-1.2201958e-05 178:1.9443785e-05 179:-9.4135321e-06 180:-6.8964164e-06 181:8.3281275e-06 182:9.6529595e-07 183:-1.0359942e-05 184:6.7718167e-07 185:4.444682e-06 186:-2.0509806e-06 187:1.3880694e-05 188:4.7600765e-06 189:-9.7295379e-06 190:-4.4685553e-06 191:-1.4288836e-06 192:2.2854787e-05 193:-4.3750188e-07 194:1.5500194e-05 195:1.4436224e-05 196:2.0256257e-05 197:2.1844613e-05 198:1.5348764e-05 199:7.3643223e-06 200:-5.2927453e-07 201:-1.1895809e-06 202:2.7739036e-06 203:1.0790595e-05 204:3.7381305e-06 205:-1.1558614e-05 206:2.7241092e-06 207:1.4291809e-05 208:-2.0720604e-06 209:-1.9106468e-05 210:-4.3829691e-06 211:-5.7894836e-06 212:1.0941534e-06 213:2.7614229e-05 214:-1.3758695e-05 215:8.925711e-06 216:-2.2338154e-05 217:-2.6185265e-07 218:3.5102694e-05 219:-2.2300774e-05 220:1.0337954e-05 221:5.0165704e-06 222:6.0191774e-06 223:2.8122654e-06 224:-6.8714908e-06 225:2.8327977e-06 226:6.6460721e-06 227:5.7592897e-06 228:1.9556725e-05 229:-1.8290732e-05 230:9.3761964e-06 231:-5.0221834e-06 232:8.9565519e-06 233:-1.0603535e-05 234:-7.0931969e-07 235:5.7065267e-06 236:1.0223253e-05 237:1.7977241e-05 238:2.8279745e-05 239:2.2160284e-06 240:-2.5611531e-05 241:1.008182e-05 242:-3.5096243e-06 243:-1.307019e-05 244:-6.3463312e-06 245:3.8846374e-05 246:5.9376644e-06 247:2.5492283e-05 248:1.4027551e-05 249:-4.322485e-06 250:-1.8978983e-05 251:7.2968683e-06 252:-1.3014589e-05 253:-2.8012168e-05 254:2.5939426e-07 255:-6.7154842e-06 256:7.108149e-06 257:2.2041146e-05 258:-2.317389e-05 259:-3.1584609e-06 260:2.9258927e-06 261:9.2038732e-07 262:-1.399651e-05 263:1.0849081e-05 264:-4.2246738e-06 265:-2.0762176e-05 266:2.4429091e-06 267:2.4499144e-05 268:-4.7908384e-06 269:1.1250242e-05 270:3.8341303e-05 271:8.0677037e-06 272:-1.1012454e-05 273:3.944644e-06 274:6.1444553e-06 275:-1.2472314e-05 276:-5.6715521e-06 277:2.4701319e-05 278:-7.2013017e-06 279:1.6415752e-05 280:-2.257527e-05 281:-2.4886729e-05 282:1.235772e-05 283:-2.4616018e-06 284:-8.8699171e-06 285:2.9999785e-06 286:1.2671055e-05 287:-1.3443226e-06 288:4.6745862e-07 289:-8.183456e-07 290:1.9921399e-05 291:-2.0854186e-05 292:-1.2599417e-06 293:2.0913744e-06 294:3.992785e-06 295:-3.9266147e-06 296:-2.1120059e-06 297:-8.8075712e-06 298:-1.7377844e-05 299:-1.4189472e-05 300:-2.2281109e-05 301:-1.6651185e-05 302:4.4307103e-06 303:1.5025261e-05 304:-9.2025666e-06 305:1.7028412e-06 306:-5.0767267e-06 307:3.1022346e-06 308:2.6370721e-05 309:2.3377215e-06 310:-5.8316682e-06 311:1.6110691e-05 312:-5.9311856e-06 313:1.0801247e-05 314:2.5689343e-07 315:-3.5825651e-06 316:-3.8010919e-06 317:1.2121352e-06 318:1.6809639e-06 319:-1.1875251e-05 320:2.3711939e-06 321:7.118706e-06 322:2.3191942e-06 323:-1.2482516e-05 324:-2.200386e-05 325:-1.3108743e-05 326:7.1632226e-06 327:-4.5890279e-06 328:7.9903366e-06 329:-4.75452e-06 330:2.9774674e-06 331:6.6843522e-06 332:-7.9878546e-06 333:-1.4423423e-06 334:-1.8708064e-05 335:-2.6325465e-06 336:4.0111299e-06 337:6.7712917e-06 338:1.8726487e-06 339:-6.8963018e-06 340:-4.9061991e-06 341:2.2256439e-05 342:6.0064249e-06 343:-1.8869971e-05 344:-3.3580185e-05 345:3.0891472e-06 346:-5.0637072e-06 347:1.68482e-05 348:3.0794506e-06 349:-4.9228925e-06 350:-7.2061775e-06 351:6.6091143e-06 352:-1.4082328e-05 353:-5.2894853e-07 354:-1.6344058e-05 355:-5.0024855e-06 356:3.3714416e-05 357:1.3136715e-05 358:9.2702239e-06 359:-6.4976293e-06 360:-1.9377563e-05 361:1.0733209e-05 362:-7.2004977e-06 363:-6.160175e-06 364:2.7274358e-05 365:-2.3743172e-05 366:-4.925304e-06 367:-2.9036792e-07 368:-1.0052729e-05 369:7.887289e-06 370:8.3678442e-06 371:1.9844498e-07 372:-1.2784641e-05 373:1.19803e-05 374:-2.3660878e-06 375:9.1405236e-06 376:-1.0358252e-05 377:-2.0080847e-06 378:3.4152226e-06 379:-1.3932816e-05 380:-6.0241869e-06 381:5.0465792e-06 382:5.7451603e-06 383:2.0379402e-05 384:1.4362067e-05 385:-1.3853516e-05 386:1.580848e-05 387:1.8118627e-06 388:2.8950999e-05 389:3.120293e-05 390:1.5021544e-05 391:-3.2385375e-05 392:-3.5729209e-07 393:-2.3913465e-06 394:-3.4007144e-06 395:-2.9841962e-05 396:1.2643058e-05 397:1.1874081e-05 398:-8.0672521e-07 399:1.1527046e-05 400:3.2561755e-05 401:-8.6800692e-06 402:-2.1847387e-05 403:-8.9359664e-06 404:3.3847382e-07 405:-1.6648899e-05 406:-1.0601948e-05 407:-1.2711173e-05 408:7.3747324e-06 409:-2.021332e-06 410:-8.6658929e-06 411:1.447017e-06 412:-1.0184241e-05 413:-2.1250315e-05 414:-8.8135215e-07 415:-5.353812e-06 416:-2.2803397e-05 417:-1.6562293e-05 418:1.0237135e-05 419:-1.2345125e-05 420:4.0152813e-06 421:1.0484078e-05 422:7.8974409e-07 423:-9.682105e-06 424:-1.9914265e-05 425:2.6530331e-06 426:1.2625751e-06 427:-3.4863966e-05 428:3.8210414e-06 429:-1.0489415e-05 430:1.1077562e-05 431:-5.043918e-06 432:2.4527522e-05 433:1.2276129e-05 434:-1.5001316e-05 435:8.2758279e-06 436:-1.1582622e-05 437:2.5853196e-05 438:4.358199e-06 439:-8.8220622e-06 440:-1.1745034e-05 441:-6.1743112e-06 442:-1.824897e-06 443:-2.1158119e-06 444:1.401241e-05 445:-2.3066372e-05 446:-1.6464788e-05 447:-3.1012263e-05 448:4.6178434e-06 449:2.0868494e-05 450:2.0098285e-05 451:-3.3873982e-06 452:6.560628e-08 453:4.7310659e-06 454:-6.3388768e-07 455:-2.0365182e-05 456:-2.8592469e-05 457:-2.552279e-05 458:4.8103157e-05 459:1.3401353e-05 460:6.5365957e-06 461:-1.2340133e-06 462:-3.1565944e-06 463:1.1214905e-05 464:1.5743182e-05 465:-3.7681373e-06 466:-1.025087e-07 467:-1.7012965e-06 468:2.4925968e-05 469:1.9002508e-05 470:-1.6890255e-05 471:2.9283619e-06 472:7.3101155e-06 473:1.2353266e-05 474:4.2937299e-06 475:4.7308022e-06 476:1.0542472e-05 477:-1.7031874e-05 478:-1.191194e-05 479:-1.101408e-05 480:1.0581833e-05 481:-1.1207148e-05 482:-5.4284405e-06 483:7.8643789e-06 484:1.817169e-05 485:-7.9398524e-06 486:-1.5075881e-05 487:-1.3150117e-05 488:7.5181174e-07 489:7.9408755e-06 490:3.493107e-06 491:4.9635692e-06 492:-1.5952473e-05 493:-2.029664e-05 494:-2.8456625e-06 495:2.2151704e-05 496:3.5633245e-06 497:1.7887795e-06 498:-7.6457968e-07 499:5.5761102e-06 500:-3.6127323e-05 501:6.9112812e-06 502:-2.8131167e-06 503:1.9008372e-06 504:-1.2280806e-05 505:-7.8335694e-07 506:-1.1528315e-06 507:1.3655932e-06 508:-6.5170625e-06 509:-4.9716118e-06 510:2.0845823e-06 511:2.1158644e-06 512:9.7476477e-06 513:1.3664222e-05 514:1.9122082e-05 515:3.3843789e-05 516:-1.2856851e-05 517:1.1430771e-05 518:1.386228e-05 519:-8.7811677e-06 520:-1.4105653e-05 521:-1.0029335e-05 522:-7.1959466e-06 523:-8.2568786e-06 524:-2.4677513e-07 525:-4.001486e-05 526:-1.0394644e-05 527:2.5042846e-05 528:-1.2829368e-05 529:2.1832673e-05 530:-4.4360768e-06 531:-7.9768952e-06 532:1.9391007e-06 533:1.3801116e-05 534:-1.2391954e-05 535:1.0289693e-05 536:-1.8501574e-05 537:-1.1423542e-05 538:1.6018123e-05 539:-2.397868e-06 540:-1.4888054e-05 541:3.2836949e-06 542:-1.7214548e-05 543:3.1347797e-06 544:1.0117396e-05 545:1.7710872e-06 546:1.6383354e-05 547:-1.0720304e-05 548:-2.7205058e-06 549:7.8047615e-06 550:2.0963918e-05 551:-5.305616e-06 552:8.0843865e-06 553:2.2789871e-05 554:2.0628431e-05 555:-2.1306372e-05 556:8.4458115e-06 557:9.2697974e-06 558:8.9289379e-06 559:1.7901246e-05 560:-1.1357339e-05 561:7.3402299e-07 562:-1.1780258e-05 563:-2.1575008e-06 564:6.0022853e-06 565:-1.1037919e-05 566:1.2204172e-05 567:2.49326e-05 568:-3.2661328e-06 569:-9.970553e-06 570:9.6070135e-06 571:7.8693402e-06 572:5.3665199e-06 573:-2.5375606e-05 574:1.8895422e-05 575:6.1244723e-06 576:-2.3349847e-05 577:-1.2696466e-05 578:-1.4324789e-05 579:-3.4395675e-06 580:2.1183921e-05 581:1.1762612e-05 582:-1.5089114e-05 583:-3.3686217e-06 584:-1.4034816e-05 585:1.5316695e-05 586:3.1593154e-05 587:-2.8227996e-06 588:-7.9696338e-06 589:-1.6837825e-05 590:-8.7224106e-07 591:-5.1115644e-06 592:-1.2506564e-05 593:-3.1778648e-06 594:5.3410727e-06 595:3.4527484e-06 596:1.0993989e-06 597:-1.5423318e-05 598:1.667274e-05 599:-2.6414662e-05 600:7.6414963e-06 601:-3.1794189e-05 602:8.3910954e-06 603:1.7348953e-05 604:4.7236636e-08 605:5.4083862e-06 606:-4.421133e-07 607:3.6107228e-06 608:-1.8569028e-05 609:1.360722e-05 610:5.2246337e-06 611:2.4082678e-05 612:3.9709103e-06 613:-9.7072061e-06 614:-5.0971789e-06 615:1.1638023e-05 616:-5.8887463e-06 617:6.6884281e-06 618:1.0991811e-05 619:1.5874497e-06 620:-2.0984977e-05 621:1.6804603e-05 622:3.7104244e-05 623:-8.6238069e-06 624:-6.7683195e-06 625:-3.2814266e-06 626:-3.8036564e-05 627:-2.1496935e-05 628:-5.2682667e-06 629:2.3567833e-05 630:7.3746005e-06 631:-7.8738185e-06 632:1.1535357e-05 633:-9.3521949e-06 634:1.4900438e-06 635:-2.0676818e-05 636:-2.146885e-06 637:2.3564975e-05 638:8.1553644e-06 639:-6.4008927e-06 640:-9.0610984e-06 641:-1.5305089e-06 642:4.7955987e-06 643:3.7506959e-06 644:-3.0810791e-06 645:-1.0617625e-05 646:-1.2739286e-05 647:-3.4880527e-06 648:-1.1028797e-05 649:2.6508425e-05 650:-5.4644579e-06 651:-1.262516e-05 652:-3.8219709e-06 653:3.2596395e-06 654:-6.6697594e-06 655:-6.5309962e-07 656:2.985561e-07 657:-9.0173808e-06 658:7.1812938e-06 659:1.1451677e-05 660:2.1170166e-05 661:4.8930337e-06 662:5.9914723e-06 663:1.2067077e-05 664:-1.6888716e-05 665:-8.5873435e-06 666:-8.9117912e-06 667:-1.5031015e-05 668:9.8970741e-06 669:-3.7730524e-06 670:3.2154326e-06 671:-3.6937895e-06 672:-2.1135129e-05 673:9.4964516e-06 674:-4.7695303e-06 675:-1.2459069e-06 676:-2.2460834e-05 677:-2.4957269e-05 678:7.7404468e-07 679:7.6011548e-07 680:-1.0453119e-05 681:2.3645414e-05 682:1.1698413e-05 683:-2.6119995e-05 684:2.0844353e-05 685:-1.4540195e-05 686:2.2289423e-05 687:1.428722e-05 688:2.0748987e-06 689:-1.0847192e-05 690:-1.3164436e-05 691:9.7111761e-06 692:1.5222123e-05 693:-1.8446017e-05 694:7.4331597e-06 695:-6.3743291e-06 696:1.2976429e-05 697:-1.6144397e-05 698:-1.2293501e-08 699:2.4670777e-05 700:1.7402879e-05 701:2.8530633e-06 702:-1.5527907e-05 703:-9.8899927e-06 704:-1.1252754e-06 705:-1.2284221e-06 706:4.0005016e-06 707:2.7891301e-05 708:1.7726167e-06 709:-2.0710251e-05 710:4.8480101e-06 711:6.9414587e-06 712:-1.2969046e-05 713:-2.1760661e-05 714:-8.7085218e-06 715:1.2840424e-05 716:-1.059561e-05 717:-6.6086154e-06 718:2.4027699e-05 719:1.5623635e-05 720:4.4948506e-06 721:6.256922e-06 722:-2.3853352e-05 723:-6.8477048e-06 724:-1.2509407e-05 725:3.1952386e-05 726:5.0220278e-06 727:-2.6787126e-05 728:6.953017e-06 729:-1.6731641e-05 730:-9.0971907e-06 731:-1.1918489e-05 732:8.9078831e-06 733:-3.7344091e-06 734:2.5650122e-06 735:-3.8867247e-06 736:1.2423293e-05 737:-1.1690609e-05 738:1.5129839e-05 739:9.1680545e-07 740:-3.5725932e-06 741:-1.1103528e-05 742:-4.8400229e-06 743:-3.7143235e-07 744:6.3556172e-07 745:1.3076261e-05 746:-1.5372578e-05 747:-9.9081481e-06 748:-2.9705356e-05 749:-4.1074181e-06 750:-1.4753738e-05 751:2.3486691e-06 752:-4.5729903e-06 753:6.3792891e-06 754:1.4609208e-05 755:2.7286307e-05 756:1.2439122e-05 757:-2.064058e-06 758:1.814359e-05 759:2.5783966e-06 760:1.2562687e-05 761:-9.9339441e-06 762:7.1979862e-06 763:-1.7149261e-05 764:1.2926779e-05 765:1.5064309e-06 766:-2.0284265e-06 767:-1.4666072e-06 #
