SVM-light Version V6.20
3 # kernel type
3 # kernel parameter -d
1 # kernel parameter -g
1 # kernel parameter -s
1 # kernel parameter -r
empty# kernel parameter -u
201 # highest feature index
2 # number of training documents
609 # number of support vectors plus 1
0 # threshold b, each following line is a SV (starting with alpha*y)
-0.0098684210526315783995610075862714 1:0.091887176 2:-0.061151151 3:-0.0057462933 4:0.028770458 5:0.029724808 6:-0.0086719282 7:0.00066153402 8:-0.041472498 9:0.065000914 10:-0.041635659 11:0.025060864 12:-0.020664666 13:0.088473655 14:-0.013109647 15:-0.0042261682 16:0.059195895 17:0.073995866 18:0.016417636 19:0.0021116131 20:-0.069558024 21:-0.046513204 22:-0.017765932 23:0.01947318 24:-0.026140109 25:0.019502439 26:0.01930798 27:-0.027529808 28:9.6815318e-05 29:-0.010810546 30:-0.04564891 31:-0.014139806 32:0.0081321746 33:0.036559016 34:0.043411337 35:0.00070177938 36:-0.021172022 37:-0.03876134 38:-0.033906303 39:-0.022181805 40:0.05510382 41:0.036233649 42:0.016978189 43:-0.033659872 44:0.029301029 45:-0.006882194 46:-0.0016493062 47:0.012234196 48:0.016809093 49:-0.0084187649 50:0.013290518 51:0.042317137 52:-0.018495964 53:-0.03654306 54:-0.010079057 55:-0.0010899486 56:-0.03371197 57:-0.0056941421 58:-0.008471976 59:-0.0077263606 60:0.0098682521 61:0.029065035 62:0.00016702841 63:-0.0014762682 64:-0.010043995 65:0.01621516 66:-0.0067747175 67:-0.012604783 68:-0.0021571256 69:-0.020560572 70:-0.030663172 71:-0.0052579343 72:0.021980079 73:0.0042823381 74:0.0056650317 75:-0.013810297 76:0.017253079 77:-0.023934672 78:-0.0021892451 79:0.0029595406 80:-0.019210739 81:0.0046959734 82:0.0052584712 83:-0.0038513194 84:-0.002594891 85:0.0062111169 86:-0.0049717827 87:-0.0064999904 88:-0.0061504631 89:0.0052893134 90:-0.013407933 91:-0.0080106352 92:-0.0050119665 93:-0.014097853 94:0.010518749 95:-0.017864879 96:-0.011832329 97:-0.0006679566 98:-0.0016584762 99:-0.02153042 100:0.013365094 101:-0.020379435 102:-0.0080661317 103:0.0045419927 104:0.0067800484 105:-0.0079595568 106:-0.0014279073 107:0.0053978791 108:0.0039953082 109:-0.0037404983 110:0.0046443478 111:-0.0090754991 112:0.0085922703 113:-0.0090247719 114:0.0064980355 115:-0.013891785 116:0.003687585 117:0.0065365904 118:0.006677554 119:0.0022189601 120:0.0011230267 121:0.00055664382 122:-0.012472016 123:-0.016274683 124:0.019799767 125:-0.0072691673 126:-0.020729734 127:0.0027658748 128:-0.012874555 129:-0.0081426557 130:-0.0066026994 131:-0.0088227764 132:-0.018319685 133:-0.0022845436 134:0.0020273507 135:-0.0043129367 136:-0.0043644183 137:0.0041589709 138:-0.013904122 139:0.010916181 140:0.018342119 141:0.0013211556 142:0.013113515 143:-0.0016339013 144:-0.0056660455 145:0.0037498821 146:0.0049456572 147:0.011089011 148:-0.0091243237 149:0.0066336193 150:0.0074986205 151:0.010757872 152:0.025948213 153:-0.0083540026 154:-0.0052693249 155:0.0066195009 156:-0.010853964 157:0.0053034485 158:-0.02403355 159:0.0024326355 160:0.0017670604 161:0.0041332277 162:0.0075597879 163:-0.019988086 164:0.014262966 165:-0.023790656 166:0.007228056 167:0.00028186859 168:-0.014791908 169:0.0029737074 170:0.0062546297 171:-0.0013728928 172:-0.0041398294 173:-7.7241923e-05 174:0.0097068883 175:-0.0038855895 176:0.0037318899 177:-0.0015190906 178:-0.0026364056 179:0.0058400733 180:0.0020304334 181:-0.0096183829 182:0.0054675061 183:0.008406885 184:-0.011030472 185:-0.006539885 186:0.0017857621 187:-0.0029194315 188:-0.0058001 189:0.013595788 190:-0.0069423807 191:0.0027491935 192:0.0030428057 193:-0.0042731245 194:0.0022231918 195:-0.0021619631 196:-0.014402172 197:4.1329473e-05 198:0.00011718082 199:-0.0091778683 200:-0.001453063 #
0.0098684210526315783995610075862714 1:0.015520731 2:-0.10198873 3:0.017126713 4:0.048429959 5:0.012561504 6:-0.053337261 7:0.057138212 8:-0.0066307508 9:0.10896674 10:0.0014391564 11:-0.035713628 12:-0.099011071 13:0.096095257 14:-0.076262549 15:-0.0035913752 16:0.10919435 17:0.073298976 18:0.014139871 19:0.019208798 20:-0.067400783 21:-0.010808664 22:-0.028734323 23:0.043612674 24:-0.0030241774 25:-0.010489023 26:0.034175504 27:-0.033515714 28:0.04251419 29:0.01527113 30:-0.03238982 31:-0.060495853 32:-0.016738791 33:-0.0086626429 34:-0.0074194274 35:-0.0034191471 36:0.007313678 37:-0.0075468644 38:-0.0033748152 39:0.0041729882 40:0.021971485 41:0.024108296 42:0.0082792491 43:0.014932254 44:0.024784278 45:0.0026281164 46:-0.0070008202 47:0.001892007 48:0.013017152 49:-0.013070977 50:-0.019396868 51:0.0068099308 52:-0.00030506289 53:-0.022953546 54:-0.0068979673 55:0.0070427731 56:-0.0133869 57:-0.0083751678 58:-0.0017778637 59:0.017627768 60:0.03429177 61:0.00068582571 62:0.0036290935 63:0.023480078 64:0.0014633927 65:0.020793727 66:-0.005233557 67:-0.00037273989 68:-0.0063464562 69:8.2683546e-05 70:0.0057674041 71:-0.017851623 72:-0.0031250773 73:0.017717497 74:0.011207882 75:-0.01673853 76:0.01055737 77:0.0033730988 78:0.0092895413 79:-0.0068589845 80:-0.0087223984 81:-0.015770812 82:0.011276977 83:-0.020911971 84:-0.0045020566 85:0.00064101641 86:-0.0061699548 87:-0.028109336 88:-0.0041646012 89:0.0069336765 90:-0.032038148 91:-0.011694009 92:-0.0097610094 93:0.0095146736 94:0.001091379 95:-0.0093405219 96:-0.0079999799 97:-0.010711335 98:-0.01509741 99:-0.0087222978 100:0.011700565 101:0.013507228 102:0.0018143856 103:0.015843205 104:0.00045415558 105:0.014319276 106:0.0029185505 107:0.026113397 108:-0.011875523 109:0.0025204201 110:-0.0041069323 111:0.0053469148 112:0.023725916 113:-0.0074084196 114:0.0014626533 115:-0.0086176218 116:0.0071070427 117:0.0016476455 118:-0.0058109164 119:0.0049226633 120:0.0058652279 121:0.0068095522 122:-0.019988654 123:0.013264534 124:0.0088863894 125:-0.0086908359 126:-0.0061659603 127:-0.0073962305 128:-0.0147258 129:-0.020674508 130:-0.013894518 131:-0.015026825 132:-0.016497321 133:0.0020547113 134:0.0060352869 135:0.0091203423 136:0.0084516713 137:-0.0028539666 138:-0.013032066 139:0.010848225 140:0.02381178 141:0.0020867519 142:0.025664803 143:-0.011561233 144:0.0012235492 145:0.0019426284 146:0.013887912 147:0.0080853421 148:-0.0087891445 149:-0.0024268259 150:-0.015370939 151:0.0011827289 152:0.0082099112 153:-0.0039710272 154:-0.0010968539 155:0.0097739389 156:0.0028280299 157:0.0017760858 158:-0.0023112453 159:0.012691574 160:0.0045915316 161:0.010726357 162:-0.0013190035 163:-0.0045667193 164:-0.0089928359 165:0.0003627816 166:-0.02171606 167:-0.0038889078 168:0.0020440475 169:-0.0058615375 170:-0.0010200335 171:0.0083027678 172:0.0026584603 173:-0.012502844 174:0.0078684371 175:-0.0054954323 176:0.012747217 177:0.0063280105 178:-0.009289966 179:-0.0077507095 180:-0.0023530475 181:-0.0082819434 182:-0.00082632323 183:0.00083169329 184:0.0037911057 185:-0.006744015 186:0.0082516745 187:0.0089430846 188:-0.01840798 189:0.0074416758 190:-0.0027451233 191:-0.0031599982 192:-0.0094630858 193:-0.0081212856 194:-0.010679627 195:0.003523184 196:0.0077199587 197:-0.0042158975 198:-0.00017939026 199:0.0033234067 200:-0.0030512926 #
-0.0098684210526315783995610075862714 1:0.091887176 2:-0.061151151 3:-0.0057462933 4:0.028770458 5:0.029724808 6:-0.0086719282 7:0.00066153402 8:-0.041472498 9:0.065000914 10:-0.041635659 11:0.025060864 12:-0.020664666 13:0.088473655 14:-0.013109647 15:-0.0042261682 16:0.059195895 17:0.073995866 18:0.016417636 19:0.0021116131 20:-0.069558024 21:-0.046513204 22:-0.017765932 23:0.01947318 24:-0.026140109 25:0.019502439 26:0.01930798 27:-0.027529808 28:9.6815318e-05 29:-0.010810546 30:-0.04564891 31:-0.014139806 32:0.0081321746 33:0.036559016 34:0.043411337 35:0.00070177938 36:-0.021172022 37:-0.03876134 38:-0.033906303 39:-0.022181805 40:0.05510382 41:0.036233649 42:0.016978189 43:-0.033659872 44:0.029301029 45:-0.006882194 46:-0.0016493062 47:0.012234196 48:0.016809093 49:-0.0084187649 50:0.013290518 51:0.042317137 52:-0.018495964 53:-0.03654306 54:-0.010079057 55:-0.0010899486 56:-0.03371197 57:-0.0056941421 58:-0.008471976 59:-0.0077263606 60:0.0098682521 61:0.029065035 62:0.00016702841 63:-0.0014762682 64:-0.010043995 65:0.01621516 66:-0.0067747175 67:-0.012604783 68:-0.0021571256 69:-0.020560572 70:-0.030663172 71:-0.0052579343 72:0.021980079 73:0.0042823381 74:0.0056650317 75:-0.013810297 76:0.017253079 77:-0.023934672 78:-0.0021892451 79:0.0029595406 80:-0.019210739 81:0.0046959734 82:0.0052584712 83:-0.0038513194 84:-0.002594891 85:0.0062111169 86:-0.0049717827 87:-0.0064999904 88:-0.0061504631 89:0.0052893134 90:-0.013407933 91:-0.0080106352 92:-0.0050119665 93:-0.014097853 94:0.010518749 95:-0.017864879 96:-0.011832329 97:-0.0006679566 98:-0.0016584762 99:-0.02153042 100:0.013365094 101:-0.020379435 102:-0.0080661317 103:0.0045419927 104:0.0067800484 105:-0.0079595568 106:-0.0014279073 107:0.0053978791 108:0.0039953082 109:-0.0037404983 110:0.0046443478 111:-0.0090754991 112:0.0085922703 113:-0.0090247719 114:0.0064980355 115:-0.013891785 116:0.003687585 117:0.0065365904 118:0.006677554 119:0.0022189601 120:0.0011230267 121:0.00055664382 122:-0.012472016 123:-0.016274683 124:0.019799767 125:-0.0072691673 126:-0.020729734 127:0.0027658748 128:-0.012874555 129:-0.0081426557 130:-0.0066026994 131:-0.0088227764 132:-0.018319685 133:-0.0022845436 134:0.0020273507 135:-0.0043129367 136:-0.0043644183 137:0.0041589709 138:-0.013904122 139:0.010916181 140:0.018342119 141:0.0013211556 142:0.013113515 143:-0.0016339013 144:-0.0056660455 145:0.0037498821 146:0.0049456572 147:0.011089011 148:-0.0091243237 149:0.0066336193 150:0.0074986205 151:0.010757872 152:0.025948213 153:-0.0083540026 154:-0.0052693249 155:0.0066195009 156:-0.010853964 157:0.0053034485 158:-0.02403355 159:0.0024326355 160:0.0017670604 161:0.0041332277 162:0.0075597879 163:-0.019988086 164:0.014262966 165:-0.023790656 166:0.007228056 167:0.00028186859 168:-0.014791908 169:0.0029737074 170:0.0062546297 171:-0.0013728928 172:-0.0041398294 173:-7.7241923e-05 174:0.0097068883 175:-0.0038855895 176:0.0037318899 177:-0.0015190906 178:-0.0026364056 179:0.0058400733 180:0.0020304334 181:-0.0096183829 182:0.0054675061 183:0.008406885 184:-0.011030472 185:-0.006539885 186:0.0017857621 187:-0.0029194315 188:-0.0058001 189:0.013595788 190:-0.0069423807 191:0.0027491935 192:0.0030428057 193:-0.0042731245 194:0.0022231918 195:-0.0021619631 196:-0.014402172 197:4.1329473e-05 198:0.00011718082 199:-0.0091778683 200:-0.001453063 #
0.0098684210526315783995610075862714 1:0.015520731 2:-0.10198873 3:0.017126713 4:0.048429959 5:0.012561504 6:-0.053337261 7:0.057138212 8:-0.0066307508 9:0.10896674 10:0.0014391564 11:-0.035713628 12:-0.099011071 13:0.096095257 14:-0.076262549 15:-0.0035913752 16:0.10919435 17:0.073298976 18:0.014139871 19:0.019208798 20:-0.067400783 21:-0.010808664 22:-0.028734323 23:0.043612674 24:-0.0030241774 25:-0.010489023 26:0.034175504 27:-0.033515714 28:0.04251419 29:0.01527113 30:-0.03238982 31:-0.060495853 32:-0.016738791 33:-0.0086626429 34:-0.0074194274 35:-0.0034191471 36:0.007313678 37:-0.0075468644 38:-0.0033748152 39:0.0041729882 40:0.021971485 41:0.024108296 42:0.0082792491 43:0.014932254 44:0.024784278 45:0.0026281164 46:-0.0070008202 47:0.001892007 48:0.013017152 49:-0.013070977 50:-0.019396868 51:0.0068099308 52:-0.00030506289 53:-0.022953546 54:-0.0068979673 55:0.0070427731 56:-0.0133869 57:-0.0083751678 58:-0.0017778637 59:0.017627768 60:0.03429177 61:0.00068582571 62:0.0036290935 63:0.023480078 64:0.0014633927 65:0.020793727 66:-0.005233557 67:-0.00037273989 68:-0.0063464562 69:8.2683546e-05 70:0.0057674041 71:-0.017851623 72:-0.0031250773 73:0.017717497 74:0.011207882 75:-0.01673853 76:0.01055737 77:0.0033730988 78:0.0092895413 79:-0.0068589845 80:-0.0087223984 81:-0.015770812 82:0.011276977 83:-0.020911971 84:-0.0045020566 85:0.00064101641 86:-0.0061699548 87:-0.028109336 88:-0.0041646012 89:0.0069336765 90:-0.032038148 91:-0.011694009 92:-0.0097610094 93:0.0095146736 94:0.001091379 95:-0.0093405219 96:-0.0079999799 97:-0.010711335 98:-0.01509741 99:-0.0087222978 100:0.011700565 101:0.013507228 102:0.0018143856 103:0.015843205 104:0.00045415558 105:0.014319276 106:0.0029185505 107:0.026113397 108:-0.011875523 109:0.0025204201 110:-0.0041069323 111:0.0053469148 112:0.023725916 113:-0.0074084196 114:0.0014626533 115:-0.0086176218 116:0.0071070427 117:0.0016476455 118:-0.0058109164 119:0.0049226633 120:0.0058652279 121:0.0068095522 122:-0.019988654 123:0.013264534 124:0.0088863894 125:-0.0086908359 126:-0.0061659603 127:-0.0073962305 128:-0.0147258 129:-0.020674508 130:-0.013894518 131:-0.015026825 132:-0.016497321 133:0.0020547113 134:0.0060352869 135:0.0091203423 136:0.0084516713 137:-0.0028539666 138:-0.013032066 139:0.010848225 140:0.02381178 141:0.0020867519 142:0.025664803 143:-0.011561233 144:0.0012235492 145:0.0019426284 146:0.013887912 147:0.0080853421 148:-0.0087891445 149:-0.0024268259 150:-0.015370939 151:0.0011827289 152:0.0082099112 153:-0.0039710272 154:-0.0010968539 155:0.0097739389 156:0.0028280299 157:0.0017760858 158:-0.0023112453 159:0.012691574 160:0.0045915316 161:0.010726357 162:-0.0013190035 163:-0.0045667193 164:-0.0089928359 165:0.0003627816 166:-0.02171606 167:-0.0038889078 168:0.0020440475 169:-0.0058615375 170:-0.0010200335 171:0.0083027678 172:0.0026584603 173:-0.012502844 174:0.0078684371 175:-0.0054954323 176:0.012747217 177:0.0063280105 178:-0.009289966 179:-0.0077507095 180:-0.0023530475 181:-0.0082819434 182:-0.00082632323 183:0.00083169329 184:0.0037911057 185:-0.006744015 186:0.0082516745 187:0.0089430846 188:-0.01840798 189:0.0074416758 190:-0.0027451233 191:-0.0031599982 192:-0.0094630858 193:-0.0081212856 194:-0.010679627 195:0.003523184 196:0.0077199587 197:-0.0042158975 198:-0.00017939026 199:0.0033234067 200:-0.0030512926 #
-0.0098684210526315783995610075862714 1:0.020920513 2:-0.04353014 3:0.071981438 4:0.044251055 5:0.02405577 6:-0.044004083 7:0.022995908 8:0.02203914 9:0.0049238415 10:-0.019793147 11:-0.059313044 12:-0.065128058 13:0.078554101 14:-0.025284715 15:-0.0095149139 16:0.045905318 17:0.051664982 18:0.00045692886 19:0.031622507 20:-0.04183111 21:-0.013886933 22:0.020489236 23:0.023959361 24:-0.0035790582 25:0.014519642 26:0.023902114 27:0.0011919194 28:0.011610446 29:0.010796034 30:0.018653359 31:-0.029036958 32:-0.014653521 33:0.04067716 34:-0.015048943 35:0.0076534338 36:0.01753963 37:-0.048670508 38:-0.013726607 39:-0.0065553444 40:0.011821243 41:0.017299961 42:-0.0040036258 43:0.024458457 44:0.0087421462 45:0.019057227 46:0.014218422 47:0.0049830084 48:0.0080122808 49:0.016201058 50:-0.007745232 51:0.038008053 52:0.003686293 53:-0.017000502 54:-0.01784683 55:-0.011259943 56:-0.0022868726 57:-0.014098669 58:0.0058301939 59:-0.0060284738 60:0.014676666 61:0.0011718767 62:-0.011024771 63:-0.006301024 64:0.012404017 65:0.020972101 66:0.0059968228 67:-0.0012136331 68:0.0010017751 69:-0.011174486 70:-0.00019733694 71:-0.030461608 72:0.0025495787 73:0.0083878199 74:0.042918362 75:-0.032010552 76:-0.011757555 77:0.0069606844 78:0.0018168465 79:0.0040582675 80:-0.017105272 81:0.0063772537 82:-0.0037553902 83:-0.0071009425 84:0.012696646 85:0.017504143 86:-0.0096278442 87:-0.010002418 88:0.015606623 89:0.0071219788 90:-0.0042429031 91:-0.0099369073 92:0.007013476 93:-0.0023066669 94:-0.011832107 95:0.035212014 96:0.016751669 97:0.00099078659 98:-0.0075998637 99:0.023392227 100:0.0020263838 101:0.0084468937 102:0.015065992 103:0.010756095 104:-0.0053440076 105:0.026906392 106:0.011589917 107:0.01102234 108:-0.0053605661 109:0.00083146041 110:0.0033911068 111:-0.011147127 112:0.011430738 113:0.0094339345 114:-0.0039528362 115:-0.0042866813 116:0.010128213 117:-0.0073010437 118:-0.016376207 119:-0.0047804452 120:-0.0097034778 121:0.0062427591 122:0.0034672201 123:-0.0014484001 124:0.0063711363 125:0.009920327 126:0.004970951 127:0.012608285 128:-0.010105665 129:0.0015108236 130:-0.0085580163 131:-0.014150343 132:-0.015907981 133:0.010686901 134:0.00019903776 135:-0.017844714 136:0.0071774712 137:-0.0032788571 138:-0.013743071 139:0.0078753149 140:0.0073320973 141:-0.022300415 142:0.030173454 143:-0.013501336 144:-0.0061795013 145:0.012640478 146:0.028534902 147:-0.0078455145 148:-0.0043883962 149:-0.0061166282 150:-0.016269095 151:0.013854872 152:-0.0059488374 153:-0.0030425685 154:0.0044871578 155:-0.001910975 156:0.0042595756 157:0.0065830597 158:-0.0090878066 159:-0.0036329264 160:0.0084078182 161:0.007272955 162:-0.00045827986 163:-0.0089425826 164:0.0046102451 165:-0.015929341 166:-0.0010425771 167:-0.012287621 168:0.0061135706 169:-0.0081593907 170:0.015571723 171:0.01321911 172:-0.015226093 173:0.0048628557 174:-0.0047215479 175:0.0049118786 176:-0.0036162904 177:0.0098080765 178:0.0076453397 179:-0.0062472513 180:0.004093281 181:0.0058550518 182:-0.010478885 183:-0.0018281131 184:-0.0055384208 185:-0.0089357756 186:0.00067930698 187:0.0054060617 188:-0.0037336897 189:0.017421473 190:0.01060495 191:-0.00049322855 192:0.0158264 193:-0.0081100175 194:-0.0063358182 195:0.0093536349 196:-0.0044017434 197:0.014513877 198:0.0047790748 199:6.49836e-05 200:-0.0025094924 #
0.0098684210526315783995610075862714 1:0.038192775 2:-0.10262578 3:-0.0098801553 4:0.055726256 5:0.050015889 6:-0.0083397664 7:0.042661946 8:0.0040747789 9:0.092389777 10:0.007369183 11:0.011462305 12:-0.12683007 13:0.10810146 14:-0.051607523 15:0.02044986 16:0.063185379 17:0.026020817 18:0.032157995 19:0.0047173104 20:-0.080297388 21:0.011141225 22:0.0068598692 23:0.025629936 24:0.01015004 25:-0.013937401 26:0.025651867 27:-0.01613461 28:0.015294787 29:0.040280681 30:-0.01648719 31:-0.039089013 32:-0.022257412 33:-0.0012802843 34:-0.0070028594 35:0.0092045711 36:0.04550755 37:-0.041397132 38:0.0066073784 39:0.0054785386 40:0.026875682 41:0.038912438 42:0.028414905 43:0.033894565 44:0.020914396 45:0.045054197 46:-0.033631638 47:-0.0014685591 48:0.026580088 49:0.014889763 50:-0.0067545604 51:0.01266888 52:-0.0079869786 53:-0.036293484 54:-0.048099086 55:-0.00349037 56:-0.015522948 57:0.0022352592 58:0.0051919753 59:0.02580899 60:0.011958109 61:0.04259976 62:0.016045453 63:-0.0052219569 64:-0.0055455705 65:0.029665852 66:0.019698344 67:-0.015053169 68:0.01520542 69:-0.0091791824 70:-0.018603941 71:-0.024728155 72:-0.0014807832 73:0.00043919522 74:0.013401596 75:0.016274879 76:0.009024296 77:0.017185738 78:-0.0053955191 79:0.013677091 80:-0.010690075 81:-0.007559462 82:0.0082099084 83:0.0078642601 84:0.0022718781 85:0.010024616 86:-0.014354005 87:0.0078296522 88:0.0020328225 89:-0.0019332108 90:-0.014345387 91:0.0069570048 92:0.0079888115 93:-0.015580229 94:0.0081288526 95:-0.0021970684 96:-0.0001969274 97:0.0086227478 98:-0.023597345 99:-0.011518978 100:7.6801232e-05 101:0.0011657125 102:-0.0089901444 103:0.008474947 104:0.015160214 105:-0.0066027492 106:0.0092721162 107:0.016400725 108:-0.0067854384 109:0.0049358625 110:-0.019821361 111:-0.0041964822 112:0.013849159 113:0.0010511097 114:-0.0034241234 115:-0.010918833 116:0.0027342318 117:-0.00044496125 118:-0.0084859328 119:-0.0047315941 120:0.0018715551 121:0.0023041805 122:-0.00099060754 123:-0.0063115414 124:0.0031650302 125:-0.014115461 126:0.0096346857 127:0.0024907456 128:-0.0039298562 129:0.0013342741 130:-0.012812975 131:-0.011134079 132:-0.011222385 133:-0.002164322 134:-0.0012932601 135:0.007454853 136:0.0015013481 137:-0.0070111365 138:-0.0082060788 139:0.0065945243 140:0.021660982 141:-0.0077076978 142:0.011136201 143:-0.00062358216 144:0.0078292806 145:0.0028117709 146:0.012563444 147:0.00592004 148:-0.0018629988 149:-0.011213191 150:-0.0090006217 151:0.0064950529 152:0.019180512 153:0.0010287401 154:0.0082083065 155:0.01188786 156:-0.012534856 157:0.0098110978 158:-0.011449683 159:0.00093533809 160:-0.001175032 161:0.003950438 162:-0.0010852406 163:-0.0056670774 164:0.011634428 165:-0.0043453895 166:0.0014524381 167:-0.00071881188 168:0.0065591102 169:-0.0052933753 170:0.0037396443 171:-0.0014492635 172:0.0014742122 173:0.0019848438 174:0.013532581 175:0.0015536143 176:0.0049525662 177:-0.0038613926 178:-0.0011399322 179:0.0033946787 180:0.0010046453 181:0.0081193186 182:0.00776042 183:-0.0032529305 184:-0.0039889151 185:-0.0053642495 186:0.010020385 187:3.1795531e-05 188:-0.0010355592 189:0.0072241118 190:-0.0008637039 191:0.0033964165 192:0.0077780508 193:-0.0097067868 194:0.0086143306 195:0.0017199998 196:-0.0015701737 197:0.0064048246 198:0.0011237039 199:0.0051598032 200:-0.00061588793 #
-0.0098684210526315783995610075862714 1:0.020920513 2:-0.04353014 3:0.071981438 4:0.044251055 5:0.02405577 6:-0.044004083 7:0.022995908 8:0.02203914 9:0.0049238415 10:-0.019793147 11:-0.059313044 12:-0.065128058 13:0.078554101 14:-0.025284715 15:-0.0095149139 16:0.045905318 17:0.051664982 18:0.00045692886 19:0.031622507 20:-0.04183111 21:-0.013886933 22:0.020489236 23:0.023959361 24:-0.0035790582 25:0.014519642 26:0.023902114 27:0.0011919194 28:0.011610446 29:0.010796034 30:0.018653359 31:-0.029036958 32:-0.014653521 33:0.04067716 34:-0.015048943 35:0.0076534338 36:0.01753963 37:-0.048670508 38:-0.013726607 39:-0.0065553444 40:0.011821243 41:0.017299961 42:-0.0040036258 43:0.024458457 44:0.0087421462 45:0.019057227 46:0.014218422 47:0.0049830084 48:0.0080122808 49:0.016201058 50:-0.007745232 51:0.038008053 52:0.003686293 53:-0.017000502 54:-0.01784683 55:-0.011259943 56:-0.0022868726 57:-0.014098669 58:0.0058301939 59:-0.0060284738 60:0.014676666 61:0.0011718767 62:-0.011024771 63:-0.006301024 64:0.012404017 65:0.020972101 66:0.0059968228 67:-0.0012136331 68:0.0010017751 69:-0.011174486 70:-0.00019733694 71:-0.030461608 72:0.0025495787 73:0.0083878199 74:0.042918362 75:-0.032010552 76:-0.011757555 77:0.0069606844 78:0.0018168465 79:0.0040582675 80:-0.017105272 81:0.0063772537 82:-0.0037553902 83:-0.0071009425 84:0.012696646 85:0.017504143 86:-0.0096278442 87:-0.010002418 88:0.015606623 89:0.0071219788 90:-0.0042429031 91:-0.0099369073 92:0.007013476 93:-0.0023066669 94:-0.011832107 95:0.035212014 96:0.016751669 97:0.00099078659 98:-0.0075998637 99:0.023392227 100:0.0020263838 101:0.0084468937 102:0.015065992 103:0.010756095 104:-0.0053440076 105:0.026906392 106:0.011589917 107:0.01102234 108:-0.0053605661 109:0.00083146041 110:0.0033911068 111:-0.011147127 112:0.011430738 113:0.0094339345 114:-0.0039528362 115:-0.0042866813 116:0.010128213 117:-0.0073010437 118:-0.016376207 119:-0.0047804452 120:-0.0097034778 121:0.0062427591 122:0.0034672201 123:-0.0014484001 124:0.0063711363 125:0.009920327 126:0.004970951 127:0.012608285 128:-0.010105665 129:0.0015108236 130:-0.0085580163 131:-0.014150343 132:-0.015907981 133:0.010686901 134:0.00019903776 135:-0.017844714 136:0.0071774712 137:-0.0032788571 138:-0.013743071 139:0.0078753149 140:0.0073320973 141:-0.022300415 142:0.030173454 143:-0.013501336 144:-0.0061795013 145:0.012640478 146:0.028534902 147:-0.0078455145 148:-0.0043883962 149:-0.0061166282 150:-0.016269095 151:0.013854872 152:-0.0059488374 153:-0.0030425685 154:0.0044871578 155:-0.001910975 156:0.0042595756 157:0.0065830597 158:-0.0090878066 159:-0.0036329264 160:0.0084078182 161:0.007272955 162:-0.00045827986 163:-0.0089425826 164:0.0046102451 165:-0.015929341 166:-0.0010425771 167:-0.012287621 168:0.0061135706 169:-0.0081593907 170:0.015571723 171:0.01321911 172:-0.015226093 173:0.0048628557 174:-0.0047215479 175:0.0049118786 176:-0.0036162904 177:0.0098080765 178:0.0076453397 179:-0.0062472513 180:0.004093281 181:0.0058550518 182:-0.010478885 183:-0.0018281131 184:-0.0055384208 185:-0.0089357756 186:0.00067930698 187:0.0054060617 188:-0.0037336897 189:0.017421473 190:0.01060495 191:-0.00049322855 192:0.0158264 193:-0.0081100175 194:-0.0063358182 195:0.0093536349 196:-0.0044017434 197:0.014513877 198:0.0047790748 199:6.49836e-05 200:-0.0025094924 #
0.0098684210526315783995610075862714 1:0.038192775 2:-0.10262578 3:-0.0098801553 4:0.055726256 5:0.050015889 6:-0.0083397664 7:0.042661946 8:0.0040747789 9:0.092389777 10:0.007369183 11:0.011462305 12:-0.12683007 13:0.10810146 14:-0.051607523 15:0.02044986 16:0.063185379 17:0.026020817 18:0.032157995 19:0.0047173104 20:-0.080297388 21:0.011141225 22:0.0068598692 23:0.025629936 24:0.01015004 25:-0.013937401 26:0.025651867 27:-0.01613461 28:0.015294787 29:0.040280681 30:-0.01648719 31:-0.039089013 32:-0.022257412 33:-0.0012802843 34:-0.0070028594 35:0.0092045711 36:0.04550755 37:-0.041397132 38:0.0066073784 39:0.0054785386 40:0.026875682 41:0.038912438 42:0.028414905 43:0.033894565 44:0.020914396 45:0.045054197 46:-0.033631638 47:-0.0014685591 48:0.026580088 49:0.014889763 50:-0.0067545604 51:0.01266888 52:-0.0079869786 53:-0.036293484 54:-0.048099086 55:-0.00349037 56:-0.015522948 57:0.0022352592 58:0.0051919753 59:0.02580899 60:0.011958109 61:0.04259976 62:0.016045453 63:-0.0052219569 64:-0.0055455705 65:0.029665852 66:0.019698344 67:-0.015053169 68:0.01520542 69:-0.0091791824 70:-0.018603941 71:-0.024728155 72:-0.0014807832 73:0.00043919522 74:0.013401596 75:0.016274879 76:0.009024296 77:0.017185738 78:-0.0053955191 79:0.013677091 80:-0.010690075 81:-0.007559462 82:0.0082099084 83:0.0078642601 84:0.0022718781 85:0.010024616 86:-0.014354005 87:0.0078296522 88:0.0020328225 89:-0.0019332108 90:-0.014345387 91:0.0069570048 92:0.0079888115 93:-0.015580229 94:0.0081288526 95:-0.0021970684 96:-0.0001969274 97:0.0086227478 98:-0.023597345 99:-0.011518978 100:7.6801232e-05 101:0.0011657125 102:-0.0089901444 103:0.008474947 104:0.015160214 105:-0.0066027492 106:0.0092721162 107:0.016400725 108:-0.0067854384 109:0.0049358625 110:-0.019821361 111:-0.0041964822 112:0.013849159 113:0.0010511097 114:-0.0034241234 115:-0.010918833 116:0.0027342318 117:-0.00044496125 118:-0.0084859328 119:-0.0047315941 120:0.0018715551 121:0.0023041805 122:-0.00099060754 123:-0.0063115414 124:0.0031650302 125:-0.014115461 126:0.0096346857 127:0.0024907456 128:-0.0039298562 129:0.0013342741 130:-0.012812975 131:-0.011134079 132:-0.011222385 133:-0.002164322 134:-0.0012932601 135:0.007454853 136:0.0015013481 137:-0.0070111365 138:-0.0082060788 139:0.0065945243 140:0.021660982 141:-0.0077076978 142:0.011136201 143:-0.00062358216 144:0.0078292806 145:0.0028117709 146:0.012563444 147:0.00592004 148:-0.0018629988 149:-0.011213191 150:-0.0090006217 151:0.0064950529 152:0.019180512 153:0.0010287401 154:0.0082083065 155:0.01188786 156:-0.012534856 157:0.0098110978 158:-0.011449683 159:0.00093533809 160:-0.001175032 161:0.003950438 162:-0.0010852406 163:-0.0056670774 164:0.011634428 165:-0.0043453895 166:0.0014524381 167:-0.00071881188 168:0.0065591102 169:-0.0052933753 170:0.0037396443 171:-0.0014492635 172:0.0014742122 173:0.0019848438 174:0.013532581 175:0.0015536143 176:0.0049525662 177:-0.0038613926 178:-0.0011399322 179:0.0033946787 180:0.0010046453 181:0.0081193186 182:0.00776042 183:-0.0032529305 184:-0.0039889151 185:-0.0053642495 186:0.010020385 187:3.1795531e-05 188:-0.0010355592 189:0.0072241118 190:-0.0008637039 191:0.0033964165 192:0.0077780508 193:-0.0097067868 194:0.0086143306 195:0.0017199998 196:-0.0015701737 197:0.0064048246 198:0.0011237039 199:0.0051598032 200:-0.00061588793 #
-0.0098684210526315783995610075862714 1:0.018997846 2:-0.038728122 3:-0.083420835 4:0.053157751 5:-0.046048254 6:-0.047031112 7:0.059262753 8:0.0043640588 9:0.085958801 10:0.028802471 11:0.017419156 12:-0.10231186 13:0.1050892 14:-0.03835094 15:-0.015881905 16:0.015461214 17:0.013663093 18:-0.034783512 19:-0.007748073 20:-0.029114686 21:-0.017363776 22:-0.029772002 23:-0.011645489 24:0.0048699491 25:0.0040820097 26:-0.020799018 27:-0.036023326 28:0.0067022778 29:0.027364247 30:-0.0067687854 31:-0.0044731614 32:-0.0038041326 33:0.0056363083 34:-0.013948491 35:0.032938905 36:0.0054646907 37:-0.026177861 38:0.013460996 39:-0.025660435 40:0.0021401134 41:-0.019113161 42:-0.0024615957 43:-0.0066000717 44:0.019835444 45:0.02678542 46:-0.034533013 47:0.026243785 48:0.032254435 49:0.01030382 50:-0.016671469 51:0.0175063 52:-0.0022735565 53:-0.039858818 54:-0.010777551 55:0.0053937258 56:-0.012923324 57:-0.037226431 58:0.0087692719 59:0.015737927 60:0.019386062 61:-0.010942704 62:0.0067265993 63:0.0078891134 64:-0.0075384844 65:0.027964901 66:-0.011236699 67:0.0099943504 68:-0.00043923443 69:0.011007121 70:0.0008748651 71:-0.036689769 72:-0.015946321 73:-0.025037333 74:0.010202553 75:0.009242299 76:0.010995537 77:0.007156583 78:-0.0023626774 79:0.0061193109 80:-0.0022770267 81:0.0012063503 82:-0.0037950545 83:-0.00585052 84:0.012684077 85:0.019447641 86:0.01112923 87:0.013148694 88:0.0042339237 89:0.01281714 90:-0.018241674 91:-0.016450355 92:0.0042240596 93:-0.015316811 94:0.0053502498 95:0.0027084944 96:-0.00500962 97:0.0052044368 98:-0.0057284702 99:-0.0020651349 100:0.025297716 101:-0.0044425749 102:0.0068047899 103:0.0095283939 104:-0.0046832291 105:0.0013466247 106:-0.0097018331 107:0.012867166 108:0.0017855758 109:-0.0068517551 110:0.0052695563 111:0.0016528133 112:0.015367639 113:-0.0029430191 114:-0.0063622007 115:-0.0010529462 116:0.00050556491 117:-0.002362946 118:0.00074238697 119:-0.0014948498 120:0.0046962518 121:0.00054066948 122:-0.00060619751 123:-0.0037215089 124:0.0055250488 125:-0.013633935 126:0.0017114026 127:-0.0045696129 128:-0.0081074908 129:-0.0037986166 130:0.00076955627 131:-0.012478851 132:-0.0070455032 133:-0.0067105177 134:0.0017015311 135:-0.0064822924 136:0.015908029 137:-0.0039427057 138:0.00038618819 139:-0.0046731313 140:0.0040789493 141:0.0096527431 142:0.0090630176 143:-0.013107507 144:0.0029314258 145:0.0081503782 146:0.014441394 147:0.015727211 148:-0.011343614 149:-0.0074532568 150:0.0025124364 151:0.0003760558 152:0.0052890135 153:0.001087261 154:0.01005173 155:0.0059292158 156:-0.010336378 157:-0.0030639854 158:-0.01211641 159:0.0071722441 160:-0.00050602894 161:0.0050357026 162:0.0063060429 163:-0.0039024814 164:0.00059700996 165:-0.0042564566 166:-0.0028288963 167:-0.0016512139 168:0.0054153479 169:-9.1965594e-05 170:0.0095544094 171:0.0062106675 172:0.0057361368 173:0.004494465 174:0.0084435176 175:-0.00032225106 176:0.0021680656 177:-0.0009903328 178:0.0013627212 179:-0.01251167 180:-0.00044296219 181:-0.0048951381 182:0.00096167269 183:0.0065952819 184:-0.0038387373 185:-0.0097520715 186:0.0109969 187:0.0052072159 188:-0.0035580155 189:0.011527815 190:0.001404011 191:0.003635495 192:0.0012931948 193:0.002808552 194:0.0029400347 195:0.0058485409 196:-0.0092219776 197:-0.0040282686 198:-0.0058358819 199:-0.0058487449 200:-0.002142031 #
0.0098684210526315783995610075862714 1:-0.0057476419 2:-0.08697772 3:-0.0058387448 4:0.069236554 5:0.033363886 6:-0.039159365 7:0.051532235 8:-0.017210141 9:0.10572001 10:0.026760908 11:0.029588304 12:-0.12164633 13:0.075202763 14:-0.060337599 15:0.0319288 16:0.0780636 17:0.096023984 18:0.022976805 19:0.0038267195 20:-0.062766217 21:-0.013936003 22:-0.011105746 23:0.03357647 24:0.022022098 25:-0.03583074 26:0.017729174 27:-0.030531473 28:0.035369463 29:0.017680785 30:-0.013292508 31:-0.049123373 32:-0.01363308 33:0.014539463 34:0.0068335161 35:0.031497169 36:0.031615019 37:-0.012067282 38:0.0015318763 39:-0.020654293 40:0.035831261 41:0.038086798 42:0.012894131 43:0.017415131 44:0.02525712 45:0.023594774 46:0.0086739101 47:0.013904768 48:0.017611483 49:0.017731773 50:-0.0017211713 51:0.040012438 52:0.011150722 53:-0.039279778 54:-0.02591593 55:0.0024852604 56:0.017620847 57:-0.038076263 58:-0.013510367 59:0.00031236935 60:-0.00074104924 61:0.01788299 62:0.006150926 63:-0.0049796267 64:-0.00068881368 65:0.017591219 66:0.0096959705 67:0.015467412 68:0.012638406 69:0.004996025 70:-0.007669243 71:-0.0041741999 72:-0.014387781 73:0.0064955894 74:0.016291201 75:0.0075022508 76:0.0065563242 77:-0.003445806 78:-0.011264092 79:0.0024958316 80:-0.0094830981 81:-0.0091752596 82:-0.0089588119 83:0.010073513 84:-0.006978041 85:-0.00070346665 86:-0.031136237 87:-0.016099328 88:0.034777772 89:0.010235758 90:-0.011667372 91:0.021018801 92:0.011765739 93:0.011315828 94:0.0029079907 95:0.0071114097 96:0.0046197907 97:-0.0072513204 98:-0.012428612 99:0.023206163 100:-0.0014995355 101:0.014420968 102:-0.0015921518 103:0.0071234065 104:0.020405425 105:-0.0040047122 106:0.007777567 107:0.012284108 108:0.0020564476 109:-0.0040938705 110:-0.012830175 111:0.014912236 112:0.0036256337 113:0.002482648 114:-0.012428812 115:-0.025153356 116:0.0055183852 117:0.012200304 118:-0.0013934792 119:0.0066356808 120:0.015718065 121:-0.0049698181 122:-0.0034336182 123:0.0035742095 124:0.013688794 125:-0.011985259 126:-0.0012012052 127:0.0032287829 128:0.00035893917 129:-0.0068637608 130:-0.0044272197 131:-0.010129285 132:0.0068730479 133:0.0046000672 134:0.0026948247 135:0.0030586589 136:0.0032513835 137:0.008664065 138:-0.0030214973 139:-0.00051083765 140:0.0013721838 141:0.0089254109 142:0.01718455 143:0.0086433375 144:0.0062448788 145:0.00081323495 146:0.012667955 147:-0.0063394741 148:0.01160032 149:-0.010920454 150:-0.013558396 151:0.00425182 152:0.0083575193 153:0.010995925 154:0.011676834 155:-0.0046971478 156:-0.0080003459 157:0.0024724205 158:-0.00026770707 159:0.0020900259 160:0.0047519929 161:0.0040354566 162:-0.003265779 163:-0.00022483071 164:-0.00011817604 165:0.0065527842 166:0.0040374966 167:0.0026896198 168:0.002476234 169:0.015988229 170:-0.0067782342 171:0.010206603 172:0.0051551759 173:0.0019139266 174:0.019405281 175:0.0049637095 176:0.0092072524 177:-0.0039164885 178:-0.00031651702 179:-0.0041755075 180:0.0055374443 181:-9.0466921e-05 182:0.0092715584 183:-0.0045762984 184:0.0079111112 185:-0.0095969774 186:0.010014852 187:-0.0068299971 188:0.0027244517 189:0.015206772 190:-0.002598715 191:-0.0079374807 192:0.0067227599 193:0.0013403965 194:0.0045344988 195:0.0084733637 196:-0.012505173 197:-0.0017007752 198:-0.010987302 199:-0.0049613989 200:-0.010541846 #
-0.0098684210526315783995610075862714 1:0.018997846 2:-0.038728122 3:-0.083420835 4:0.053157751 5:-0.046048254 6:-0.047031112 7:0.059262753 8:0.0043640588 9:0.085958801 10:0.028802471 11:0.017419156 12:-0.10231186 13:0.1050892 14:-0.03835094 15:-0.015881905 16:0.015461214 17:0.013663093 18:-0.034783512 19:-0.007748073 20:-0.029114686 21:-0.017363776 22:-0.029772002 23:-0.011645489 24:0.0048699491 25:0.0040820097 26:-0.020799018 27:-0.036023326 28:0.0067022778 29:0.027364247 30:-0.0067687854 31:-0.0044731614 32:-0.0038041326 33:0.0056363083 34:-0.013948491 35:0.032938905 36:0.0054646907 37:-0.026177861 38:0.013460996 39:-0.025660435 40:0.0021401134 41:-0.019113161 42:-0.0024615957 43:-0.0066000717 44:0.019835444 45:0.02678542 46:-0.034533013 47:0.026243785 48:0.032254435 49:0.01030382 50:-0.016671469 51:0.0175063 52:-0.0022735565 53:-0.039858818 54:-0.010777551 55:0.0053937258 56:-0.012923324 57:-0.037226431 58:0.0087692719 59:0.015737927 60:0.019386062 61:-0.010942704 62:0.0067265993 63:0.0078891134 64:-0.0075384844 65:0.027964901 66:-0.011236699 67:0.0099943504 68:-0.00043923443 69:0.011007121 70:0.0008748651 71:-0.036689769 72:-0.015946321 73:-0.025037333 74:0.010202553 75:0.009242299 76:0.010995537 77:0.007156583 78:-0.0023626774 79:0.0061193109 80:-0.0022770267 81:0.0012063503 82:-0.0037950545 83:-0.00585052 84:0.012684077 85:0.019447641 86:0.01112923 87:0.013148694 88:0.0042339237 89:0.01281714 90:-0.018241674 91:-0.016450355 92:0.0042240596 93:-0.015316811 94:0.0053502498 95:0.0027084944 96:-0.00500962 97:0.0052044368 98:-0.0057284702 99:-0.0020651349 100:0.025297716 101:-0.0044425749 102:0.0068047899 103:0.0095283939 104:-0.0046832291 105:0.0013466247 106:-0.0097018331 107:0.012867166 108:0.0017855758 109:-0.0068517551 110:0.0052695563 111:0.0016528133 112:0.015367639 113:-0.0029430191 114:-0.0063622007 115:-0.0010529462 116:0.00050556491 117:-0.002362946 118:0.00074238697 119:-0.0014948498 120:0.0046962518 121:0.00054066948 122:-0.00060619751 123:-0.0037215089 124:0.0055250488 125:-0.013633935 126:0.0017114026 127:-0.0045696129 128:-0.0081074908 129:-0.0037986166 130:0.00076955627 131:-0.012478851 132:-0.0070455032 133:-0.0067105177 134:0.0017015311 135:-0.0064822924 136:0.015908029 137:-0.0039427057 138:0.00038618819 139:-0.0046731313 140:0.0040789493 141:0.0096527431 142:0.0090630176 143:-0.013107507 144:0.0029314258 145:0.0081503782 146:0.014441394 147:0.015727211 148:-0.011343614 149:-0.0074532568 150:0.0025124364 151:0.0003760558 152:0.0052890135 153:0.001087261 154:0.01005173 155:0.0059292158 156:-0.010336378 157:-0.0030639854 158:-0.01211641 159:0.0071722441 160:-0.00050602894 161:0.0050357026 162:0.0063060429 163:-0.0039024814 164:0.00059700996 165:-0.0042564566 166:-0.0028288963 167:-0.0016512139 168:0.0054153479 169:-9.1965594e-05 170:0.0095544094 171:0.0062106675 172:0.0057361368 173:0.004494465 174:0.0084435176 175:-0.00032225106 176:0.0021680656 177:-0.0009903328 178:0.0013627212 179:-0.01251167 180:-0.00044296219 181:-0.0048951381 182:0.00096167269 183:0.0065952819 184:-0.0038387373 185:-0.0097520715 186:0.0109969 187:0.0052072159 188:-0.0035580155 189:0.011527815 190:0.001404011 191:0.003635495 192:0.0012931948 193:0.002808552 194:0.0029400347 195:0.0058485409 196:-0.0092219776 197:-0.0040282686 198:-0.0058358819 199:-0.0058487449 200:-0.002142031 #
0.0098684210526315783995610075862714 1:-0.0057476419 2:-0.08697772 3:-0.0058387448 4:0.069236554 5:0.033363886 6:-0.039159365 7:0.051532235 8:-0.017210141 9:0.10572001 10:0.026760908 11:0.029588304 12:-0.12164633 13:0.075202763 14:-0.060337599 15:0.0319288 16:0.0780636 17:0.096023984 18:0.022976805 19:0.0038267195 20:-0.062766217 21:-0.013936003 22:-0.011105746 23:0.03357647 24:0.022022098 25:-0.03583074 26:0.017729174 27:-0.030531473 28:0.035369463 29:0.017680785 30:-0.013292508 31:-0.049123373 32:-0.01363308 33:0.014539463 34:0.0068335161 35:0.031497169 36:0.031615019 37:-0.012067282 38:0.0015318763 39:-0.020654293 40:0.035831261 41:0.038086798 42:0.012894131 43:0.017415131 44:0.02525712 45:0.023594774 46:0.0086739101 47:0.013904768 48:0.017611483 49:0.017731773 50:-0.0017211713 51:0.040012438 52:0.011150722 53:-0.039279778 54:-0.02591593 55:0.0024852604 56:0.017620847 57:-0.038076263 58:-0.013510367 59:0.00031236935 60:-0.00074104924 61:0.01788299 62:0.006150926 63:-0.0049796267 64:-0.00068881368 65:0.017591219 66:0.0096959705 67:0.015467412 68:0.012638406 69:0.004996025 70:-0.007669243 71:-0.0041741999 72:-0.014387781 73:0.0064955894 74:0.016291201 75:0.0075022508 76:0.0065563242 77:-0.003445806 78:-0.011264092 79:0.0024958316 80:-0.0094830981 81:-0.0091752596 82:-0.0089588119 83:0.010073513 84:-0.006978041 85:-0.00070346665 86:-0.031136237 87:-0.016099328 88:0.034777772 89:0.010235758 90:-0.011667372 91:0.021018801 92:0.011765739 93:0.011315828 94:0.0029079907 95:0.0071114097 96:0.0046197907 97:-0.0072513204 98:-0.012428612 99:0.023206163 100:-0.0014995355 101:0.014420968 102:-0.0015921518 103:0.0071234065 104:0.020405425 105:-0.0040047122 106:0.007777567 107:0.012284108 108:0.0020564476 109:-0.0040938705 110:-0.012830175 111:0.014912236 112:0.0036256337 113:0.002482648 114:-0.012428812 115:-0.025153356 116:0.0055183852 117:0.012200304 118:-0.0013934792 119:0.0066356808 120:0.015718065 121:-0.0049698181 122:-0.0034336182 123:0.0035742095 124:0.013688794 125:-0.011985259 126:-0.0012012052 127:0.0032287829 128:0.00035893917 129:-0.0068637608 130:-0.0044272197 131:-0.010129285 132:0.0068730479 133:0.0046000672 134:0.0026948247 135:0.0030586589 136:0.0032513835 137:0.008664065 138:-0.0030214973 139:-0.00051083765 140:0.0013721838 141:0.0089254109 142:0.01718455 143:0.0086433375 144:0.0062448788 145:0.00081323495 146:0.012667955 147:-0.0063394741 148:0.01160032 149:-0.010920454 150:-0.013558396 151:0.00425182 152:0.0083575193 153:0.010995925 154:0.011676834 155:-0.0046971478 156:-0.0080003459 157:0.0024724205 158:-0.00026770707 159:0.0020900259 160:0.0047519929 161:0.0040354566 162:-0.003265779 163:-0.00022483071 164:-0.00011817604 165:0.0065527842 166:0.0040374966 167:0.0026896198 168:0.002476234 169:0.015988229 170:-0.0067782342 171:0.010206603 172:0.0051551759 173:0.0019139266 174:0.019405281 175:0.0049637095 176:0.0092072524 177:-0.0039164885 178:-0.00031651702 179:-0.0041755075 180:0.0055374443 181:-9.0466921e-05 182:0.0092715584 183:-0.0045762984 184:0.0079111112 185:-0.0095969774 186:0.010014852 187:-0.0068299971 188:0.0027244517 189:0.015206772 190:-0.002598715 191:-0.0079374807 192:0.0067227599 193:0.0013403965 194:0.0045344988 195:0.0084733637 196:-0.012505173 197:-0.0017007752 198:-0.010987302 199:-0.0049613989 200:-0.010541846 #
-0.0098684210526315783995610075862714 1:0.10589654 2:-0.046784118 3:-0.0070392042 4:0.038808569 5:0.038611241 6:0.010885063 7:-0.01288292 8:-0.029365454 9:0.062841401 10:-0.016873309 11:0.03599038 12:-0.030371353 13:0.098685391 14:-0.0090265097 15:0.017514614 16:0.025781663 17:0.064173929 18:0.012316084 19:-0.0020956576 20:-0.042290628 21:-0.0303593 22:0.0045790039 23:0.037027594 24:-0.0023432167 25:0.019158509 26:0.037151504 27:-0.030291686 28:0.015645212 29:-0.015782304 30:-0.025048047 31:-0.024275998 32:0.006819258 33:0.015324634 34:0.033826046 35:0.0010461644 36:-0.0076252348 37:-0.030407934 38:-0.034355819 39:-0.012193453 40:0.048905518 41:0.052026153 42:0.0073085395 43:-0.019115146 44:0.022404306 45:-0.014221922 46:-0.0089031467 47:0.0073193288 48:0.048593696 49:0.0092746066 50:-0.019452991 51:0.068973064 52:-0.011997813 53:-0.028099827 54:-0.013728712 55:0.029568434 56:-0.011121493 57:-0.0051586851 58:0.014984448 59:0.011266498 60:0.019404162 61:0.028293615 62:0.013259281 63:0.0070356606 64:0.0037537841 65:0.006340106 66:-0.020589428 67:-0.011004879 68:-0.0010530115 69:-0.027576728 70:-0.018941931 71:-0.016589966 72:0.012026799 73:0.0056664152 74:0.030516136 75:-0.015239762 76:-0.0054076337 77:-0.016053131 78:0.0034164367 79:0.0044366051 80:-0.026273254 81:0.0042728861 82:0.010564353 83:-0.0052685956 84:0.0021383143 85:0.013763147 86:0.0077286921 87:-0.013562865 88:0.013285018 89:0.017533496 90:-0.0081696808 91:0.0036038738 92:0.0018715187 93:-0.007257916 94:-0.0046197046 95:-0.0070525496 96:0.012192107 97:0.012842884 98:-0.0046925349 99:-0.0031746891 100:0.022231577 101:0.0035959543 102:0.0053680483 103:0.0061846799 104:-0.020789176 105:-0.010973564 106:-0.0060692518 107:0.010407252 108:-0.012567834 109:-0.004936975 110:-0.015113118 111:0.00050082157 112:0.010053961 113:0.005673381 114:-0.01510911 115:-0.008347027 116:0.0012313933 117:0.013320825 118:0.0059086024 119:-0.010142732 120:0.0049208188 121:-0.0060277763 122:-0.017640773 123:0.00081558514 124:0.0036778178 125:-0.011541537 126:0.011652751 127:-0.0098622758 128:0.0075010541 129:0.011948921 130:0.0050388901 131:-0.0039269985 132:-0.017598445 133:-0.0059222686 134:-0.0042243991 135:-0.009730095 136:0.0042374581 137:-0.011325909 138:-0.011552188 139:0.013756557 140:0.011790407 141:-0.010821733 142:-0.0019505137 143:0.0092393504 144:0.00094214588 145:-0.00013125017 146:-0.0059447517 147:0.0010297196 148:-0.010208041 149:-0.0064077498 150:0.00048496423 151:0.010245895 152:0.012234741 153:-0.0028649913 154:0.0067682918 155:-0.0034394378 156:-0.013768817 157:-0.0042242068 158:-0.0075966064 159:-0.0014097462 160:0.0095058121 161:0.0022037127 162:0.0057292269 163:0.0018984693 164:0.0042804889 165:-0.015049239 166:-0.0021488608 167:0.0037344028 168:0.0014308752 169:-0.0026980694 170:0.0032011212 171:0.00056700222 172:0.0097270552 173:0.0069838567 174:0.0052001979 175:-0.00024586802 176:0.0040379697 177:-0.00012977398 178:-0.0012401806 179:-0.0070568863 180:-0.0018449603 181:-0.0055233538 182:-0.00046271968 183:-0.010661708 184:-0.015667349 185:-0.00050046522 186:0.0032564399 187:0.0060639381 188:0.0070962212 189:-0.00094487832 190:0.015292844 191:-0.0011544314 192:-0.0020660465 193:-0.0011807216 194:-0.0092865117 195:-0.00092293345 196:-0.0026834132 197:-0.0049974276 198:0.0062125814 199:-0.0032334421 200:-0.0030788302 #
0.0098684210526315783995610075862714 1:0.035023171 2:-0.11683542 3:0.0042035929 4:0.038773037 5:0.034836084 6:-0.030454582 7:0.069074228 8:-0.050650418 9:0.069482073 10:0.013691103 11:0.037895769 12:-0.11203935 13:0.085189216 14:-0.07628572 15:0.022655178 16:0.10758127 17:0.085639 18:0.029890496 19:0.050341368 20:-0.072806783 21:-0.0094716065 22:-0.043427691 23:0.048800051 24:-0.010359555 25:0.0089824814 26:0.054666474 27:-0.0076835188 28:0.039304994 29:0.066632554 30:-0.005642714 31:-0.038906511 32:-0.020814119 33:0.028067067 34:-0.023788245 35:0.015055156 36:0.015223166 37:-0.014217603 38:-0.0072649852 39:-0.035366278 40:0.022486923 41:0.029830925 42:0.012039677 43:0.026379215 44:0.015601985 45:-0.005524436 46:-0.022223694 47:0.037822735 48:0.012518454 49:-0.0085852584 50:-0.015111569 51:0.035888486 52:-0.01076722 53:-0.056167219 54:-0.036080375 55:0.0011190184 56:0.0061616343 57:-0.040906221 58:-0.002365378 59:-0.0074805184 60:0.018977856 61:-0.00033081952 62:-0.0017480706 63:0.008879507 64:0.021969534 65:0.030663477 66:-0.01945455 67:0.015098442 68:0.007288048 69:0.016201917 70:0.0022904922 71:-0.03631933 72:0.0069096917 73:-0.0080404906 74:0.0073357942 75:-0.023075376 76:-0.0048212502 77:0.0035317917 78:0.0017833809 79:-0.0021624248 80:-0.0090117659 81:0.00099962775 82:0.01187528 83:-0.001524577 84:0.00074866501 85:0.016791822 86:-0.022503404 87:0.00062950072 88:0.010805477 89:0.0056880885 90:-0.022962783 91:0.00093589915 92:0.012299133 93:-0.015957417 94:0.0049564224 95:0.0083956495 96:-0.023850773 97:0.00021396716 98:-0.0069735204 99:-0.011960137 100:0.023381634 101:0.0059016673 102:-0.025398688 103:0.0093673393 104:0.002057567 105:-0.0075819837 106:-0.0063405288 107:0.011622053 108:-0.013668296 109:-0.0050154878 110:-0.017262707 111:0.0080333641 112:0.0020070949 113:-8.3789462e-05 114:0.017901165 115:0.0088661741 116:0.0062068654 117:-0.0034062795 118:-0.0074179089 119:0.0053197131 120:-0.001851855 121:0.0062293098 122:0.0016446165 123:0.0097610243 124:-0.0048636752 125:-0.022674244 126:-0.0032491207 127:0.015541223 128:-0.002609361 129:-0.0092143221 130:-0.0054180832 131:-0.018939927 132:-0.018113026 133:-0.0080507845 134:0.00085300789 135:-0.0040080897 136:0.0161155 137:-0.022631573 138:-0.012179389 139:0.0028839863 140:0.020691322 141:-0.013129642 142:0.02096534 143:0.0025948228 144:0.0095767472 145:-0.0031370493 146:0.011281116 147:0.0019188513 148:-0.0010869589 149:-0.015651224 150:-0.012640704 151:0.010111349 152:0.016487265 153:-0.0059267916 154:0.0063888161 155:0.011313846 156:-0.0082414784 157:0.012110121 158:-0.016954327 159:0.0049593812 160:0.00071762566 161:-0.0012382371 162:-0.0038010266 163:0.0029024545 164:0.005233435 165:-0.0047354563 166:0.0009300462 167:0.0067661377 168:0.011704738 169:-0.0067758597 170:0.0082947249 171:0.0033901155 172:-0.0027589509 173:0.0065879137 174:0.018923653 175:-0.010781524 176:-0.00073819846 177:-0.0051381402 178:-0.0037983465 179:-0.0094487453 180:-0.002784203 181:-0.0012677488 182:-0.0023320729 183:0.0084466115 184:-0.013926488 185:-0.02048743 186:0.0052413135 187:-0.0030969242 188:-0.015257753 189:0.0062902346 190:-0.0011738478 191:-0.0037894966 192:0.0053244797 193:-0.015374158 194:-0.0033669935 195:0.0069374149 196:-0.0020805676 197:-0.00091141346 198:-0.0025712478 199:0.0023749869 200:-0.0085335448 #
-0.0098684210526315783995610075862714 1:0.10589654 2:-0.046784118 3:-0.0070392042 4:0.038808569 5:0.038611241 6:0.010885063 7:-0.01288292 8:-0.029365454 9:0.062841401 10:-0.016873309 11:0.03599038 12:-0.030371353 13:0.098685391 14:-0.0090265097 15:0.017514614 16:0.025781663 17:0.064173929 18:0.012316084 19:-0.0020956576 20:-0.042290628 21:-0.0303593 22:0.0045790039 23:0.037027594 24:-0.0023432167 25:0.019158509 26:0.037151504 27:-0.030291686 28:0.015645212 29:-0.015782304 30:-0.025048047 31:-0.024275998 32:0.006819258 33:0.015324634 34:0.033826046 35:0.0010461644 36:-0.0076252348 37:-0.030407934 38:-0.034355819 39:-0.012193453 40:0.048905518 41:0.052026153 42:0.0073085395 43:-0.019115146 44:0.022404306 45:-0.014221922 46:-0.0089031467 47:0.0073193288 48:0.048593696 49:0.0092746066 50:-0.019452991 51:0.068973064 52:-0.011997813 53:-0.028099827 54:-0.013728712 55:0.029568434 56:-0.011121493 57:-0.0051586851 58:0.014984448 59:0.011266498 60:0.019404162 61:0.028293615 62:0.013259281 63:0.0070356606 64:0.0037537841 65:0.006340106 66:-0.020589428 67:-0.011004879 68:-0.0010530115 69:-0.027576728 70:-0.018941931 71:-0.016589966 72:0.012026799 73:0.0056664152 74:0.030516136 75:-0.015239762 76:-0.0054076337 77:-0.016053131 78:0.0034164367 79:0.0044366051 80:-0.026273254 81:0.0042728861 82:0.010564353 83:-0.0052685956 84:0.0021383143 85:0.013763147 86:0.0077286921 87:-0.013562865 88:0.013285018 89:0.017533496 90:-0.0081696808 91:0.0036038738 92:0.0018715187 93:-0.007257916 94:-0.0046197046 95:-0.0070525496 96:0.012192107 97:0.012842884 98:-0.0046925349 99:-0.0031746891 100:0.022231577 101:0.0035959543 102:0.0053680483 103:0.0061846799 104:-0.020789176 105:-0.010973564 106:-0.0060692518 107:0.010407252 108:-0.012567834 109:-0.004936975 110:-0.015113118 111:0.00050082157 112:0.010053961 113:0.005673381 114:-0.01510911 115:-0.008347027 116:0.0012313933 117:0.013320825 118:0.0059086024 119:-0.010142732 120:0.0049208188 121:-0.0060277763 122:-0.017640773 123:0.00081558514 124:0.0036778178 125:-0.011541537 126:0.011652751 127:-0.0098622758 128:0.0075010541 129:0.011948921 130:0.0050388901 131:-0.0039269985 132:-0.017598445 133:-0.0059222686 134:-0.0042243991 135:-0.009730095 136:0.0042374581 137:-0.011325909 138:-0.011552188 139:0.013756557 140:0.011790407 141:-0.010821733 142:-0.0019505137 143:0.0092393504 144:0.00094214588 145:-0.00013125017 146:-0.0059447517 147:0.0010297196 148:-0.010208041 149:-0.0064077498 150:0.00048496423 151:0.010245895 152:0.012234741 153:-0.0028649913 154:0.0067682918 155:-0.0034394378 156:-0.013768817 157:-0.0042242068 158:-0.0075966064 159:-0.0014097462 160:0.0095058121 161:0.0022037127 162:0.0057292269 163:0.0018984693 164:0.0042804889 165:-0.015049239 166:-0.0021488608 167:0.0037344028 168:0.0014308752 169:-0.0026980694 170:0.0032011212 171:0.00056700222 172:0.0097270552 173:0.0069838567 174:0.0052001979 175:-0.00024586802 176:0.0040379697 177:-0.00012977398 178:-0.0012401806 179:-0.0070568863 180:-0.0018449603 181:-0.0055233538 182:-0.00046271968 183:-0.010661708 184:-0.015667349 185:-0.00050046522 186:0.0032564399 187:0.0060639381 188:0.0070962212 189:-0.00094487832 190:0.015292844 191:-0.0011544314 192:-0.0020660465 193:-0.0011807216 194:-0.0092865117 195:-0.00092293345 196:-0.0026834132 197:-0.0049974276 198:0.0062125814 199:-0.0032334421 200:-0.0030788302 #
0.0098684210526315783995610075862714 1:0.035023171 2:-0.11683542 3:0.0042035929 4:0.038773037 5:0.034836084 6:-0.030454582 7:0.069074228 8:-0.050650418 9:0.069482073 10:0.013691103 11:0.037895769 12:-0.11203935 13:0.085189216 14:-0.07628572 15:0.022655178 16:0.10758127 17:0.085639 18:0.029890496 19:0.050341368 20:-0.072806783 21:-0.0094716065 22:-0.043427691 23:0.048800051 24:-0.010359555 25:0.0089824814 26:0.054666474 27:-0.0076835188 28:0.039304994 29:0.066632554 30:-0.005642714 31:-0.038906511 32:-0.020814119 33:0.028067067 34:-0.023788245 35:0.015055156 36:0.015223166 37:-0.014217603 38:-0.0072649852 39:-0.035366278 40:0.022486923 41:0.029830925 42:0.012039677 43:0.026379215 44:0.015601985 45:-0.005524436 46:-0.022223694 47:0.037822735 48:0.012518454 49:-0.0085852584 50:-0.015111569 51:0.035888486 52:-0.01076722 53:-0.056167219 54:-0.036080375 55:0.0011190184 56:0.0061616343 57:-0.040906221 58:-0.002365378 59:-0.0074805184 60:0.018977856 61:-0.00033081952 62:-0.0017480706 63:0.008879507 64:0.021969534 65:0.030663477 66:-0.01945455 67:0.015098442 68:0.007288048 69:0.016201917 70:0.0022904922 71:-0.03631933 72:0.0069096917 73:-0.0080404906 74:0.0073357942 75:-0.023075376 76:-0.0048212502 77:0.0035317917 78:0.0017833809 79:-0.0021624248 80:-0.0090117659 81:0.00099962775 82:0.01187528 83:-0.001524577 84:0.00074866501 85:0.016791822 86:-0.022503404 87:0.00062950072 88:0.010805477 89:0.0056880885 90:-0.022962783 91:0.00093589915 92:0.012299133 93:-0.015957417 94:0.0049564224 95:0.0083956495 96:-0.023850773 97:0.00021396716 98:-0.0069735204 99:-0.011960137 100:0.023381634 101:0.0059016673 102:-0.025398688 103:0.0093673393 104:0.002057567 105:-0.0075819837 106:-0.0063405288 107:0.011622053 108:-0.013668296 109:-0.0050154878 110:-0.017262707 111:0.0080333641 112:0.0020070949 113:-8.3789462e-05 114:0.017901165 115:0.0088661741 116:0.0062068654 117:-0.0034062795 118:-0.0074179089 119:0.0053197131 120:-0.001851855 121:0.0062293098 122:0.0016446165 123:0.0097610243 124:-0.0048636752 125:-0.022674244 126:-0.0032491207 127:0.015541223 128:-0.002609361 129:-0.0092143221 130:-0.0054180832 131:-0.018939927 132:-0.018113026 133:-0.0080507845 134:0.00085300789 135:-0.0040080897 136:0.0161155 137:-0.022631573 138:-0.012179389 139:0.0028839863 140:0.020691322 141:-0.013129642 142:0.02096534 143:0.0025948228 144:0.0095767472 145:-0.0031370493 146:0.011281116 147:0.0019188513 148:-0.0010869589 149:-0.015651224 150:-0.012640704 151:0.010111349 152:0.016487265 153:-0.0059267916 154:0.0063888161 155:0.011313846 156:-0.0082414784 157:0.012110121 158:-0.016954327 159:0.0049593812 160:0.00071762566 161:-0.0012382371 162:-0.0038010266 163:0.0029024545 164:0.005233435 165:-0.0047354563 166:0.0009300462 167:0.0067661377 168:0.011704738 169:-0.0067758597 170:0.0082947249 171:0.0033901155 172:-0.0027589509 173:0.0065879137 174:0.018923653 175:-0.010781524 176:-0.00073819846 177:-0.0051381402 178:-0.0037983465 179:-0.0094487453 180:-0.002784203 181:-0.0012677488 182:-0.0023320729 183:0.0084466115 184:-0.013926488 185:-0.02048743 186:0.0052413135 187:-0.0030969242 188:-0.015257753 189:0.0062902346 190:-0.0011738478 191:-0.0037894966 192:0.0053244797 193:-0.015374158 194:-0.0033669935 195:0.0069374149 196:-0.0020805676 197:-0.00091141346 198:-0.0025712478 199:0.0023749869 200:-0.0085335448 #
-0.0098684210526315783995610075862714 1:0.023206064 2:-0.046224933 3:-0.057767302 4:0.070765696 5:-0.0092693064 6:-0.0050763739 7:0.053728435 8:-0.0064329859 9:0.090583429 10:0.046045154 11:0.0069339434 12:-0.10292438 13:0.080884732 14:-0.0051029953 15:0.010690149 16:0.034716669 17:0.028240969 18:-0.031477358 19:0.0052616764 20:-0.030134672 21:-0.0039094011 22:-0.010305047 23:0.0027264259 24:0.016656337 25:-0.0016997288 26:0.018487871 27:-0.052771717 28:0.014047167 29:0.014179651 30:-0.019635836 31:-0.04241363 32:0.0028746987 33:-0.0037659768 34:-0.0083131762 35:0.036594298 36:0.020324873 37:-0.0070869708 38:0.019034386 39:-0.019598089 40:0.0044879369 41:0.021069331 42:-0.008348872 43:0.0032372249 44:0.024879508 45:0.010319239 46:-0.034995928 47:-0.0024240261 48:-0.0039598057 49:-0.0072529875 50:-0.012532894 51:-0.0052211289 52:-0.0082478961 53:-0.043923032 54:-0.017905926 55:-0.027254634 56:0.0027373645 57:-0.0048945826 58:-0.015725968 59:-0.017721415 60:0.0013225445 61:-0.015348392 62:0.0021914535 63:0.0060851332 64:0.0086384024 65:0.013578791 66:-0.018826241 67:-0.011737572 68:0.014271171 69:0.012458217 70:0.011196692 71:-0.022829965 72:-0.00044517638 73:0.022078652 74:0.015780527 75:0.0059576957 76:0.010584398 77:-0.017124021 78:-0.041441869 79:0.021867434 80:-0.028334605 81:0.0042002141 82:0.020112818 83:0.0029767563 84:-0.01452889 85:0.011835448 86:0.0012768172 87:-0.014495613 88:0.0031099131 89:0.0079601407 90:-0.03065278 91:-0.015013725 92:0.0085613644 93:-0.0056109247 94:-0.002991478 95:0.012847613 96:-0.0043285531 97:-0.011589804 98:-0.0095353974 99:-0.0064003225 100:0.002286369 101:-0.0071596853 102:0.0027436579 103:-0.00410651 104:0.018252671 105:-0.0030643234 106:0.00033208265 107:0.010196719 108:-0.011179166 109:-0.015881604 110:-0.017016439 111:0.0088909939 112:0.031037351 113:-0.0029481263 114:0.0063099125 115:-0.009635184 116:-0.00019845745 117:-0.01030982 118:-0.010268321 119:0.0036417148 120:-0.0051306109 121:-0.021024246 122:-0.0020989385 123:-0.0032957976 124:-0.009423784 125:-0.018236486 126:-0.00019581504 127:-0.0017304239 128:-0.0079187797 129:0.013015086 130:-0.0051862523 131:-0.009934661 132:-0.0018711311 133:0.0028031722 134:-0.0080845291 135:-0.0095948633 136:0.014209098 137:-0.0011149487 138:-0.015633186 139:0.0021514944 140:0.012821016 141:-0.010552811 142:0.0098665254 143:0.0022414015 144:0.007641546 145:0.0051246574 146:0.011705465 147:0.0011085827 148:0.0023487532 149:-0.0088116238 150:-0.015843228 151:0.017178958 152:-0.0045243637 153:-0.0017772979 154:0.0034766546 155:0.017586146 156:-0.018643118 157:0.0090210326 158:-0.0072260615 159:0.0033623392 160:0.0056772027 161:-0.0032411038 162:0.0011555769 163:-0.0046134153 164:-0.0080482243 165:-0.012265229 166:0.0057063834 167:-0.0042762822 168:-0.0067046955 169:0.0041780798 170:0.0044513568 171:-0.0011646812 172:0.0024506496 173:-0.0080508878 174:0.011909899 175:0.0027302331 176:0.0061613554 177:-0.0076325187 178:-0.010952761 179:-0.0012949926 180:0.00023417374 181:0.00027836597 182:0.0054834569 183:-0.0040496555 184:-0.00011408829 185:-0.0066426052 186:-0.0012008793 187:-0.00078360894 188:0.0017686592 189:0.0004870843 190:0.0098910928 191:-0.0028680745 192:0.012588494 193:-0.01027956 194:0.0047781509 195:0.007771092 196:-0.0056901197 197:0.0039362609 198:0.0078445226 199:-0.0093268324 200:0.0012047895 #
0.0098684210526315783995610075862714 1:0.020927487 2:-0.10714184 3:0.003322148 4:0.056222793 5:0.02783622 6:-0.030436728 7:0.052580826 8:-0.0036354328 9:0.090319149 10:0.0084760869 11:-0.00052249484 12:-0.14061964 13:0.10639646 14:-0.057960093 15:0.019002877 16:0.092911348 17:0.083216235 18:0.027261026 19:0.0060043586 20:-0.058683701 21:-0.012266783 22:0.0018204413 23:0.046857063 24:0.016744727 25:-0.016162287 26:0.043736745 27:-0.030494275 28:0.058269415 29:0.035908192 30:-0.0040773293 31:-0.055090673 32:-0.032993458 33:0.030008553 34:0.0051528411 35:-0.0032379471 36:0.023451488 37:-0.023524782 38:0.0025912384 39:-0.0083467159 40:0.020656912 41:0.055197839 42:0.00032556476 43:0.030960623 44:0.022082206 45:0.012216842 46:-0.0083049452 47:0.025617573 48:0.010338784 49:0.0020892068 50:-0.0038048166 51:0.015306978 52:-0.0086427378 53:-0.019232396 54:-0.029151484 55:-0.0030199601 56:-0.0069822897 57:-0.016884109 58:-0.0053367824 59:0.0022278535 60:0.028046438 61:0.011773887 62:0.0093469033 63:0.012965896 64:-0.01370648 65:0.027046448 66:-0.0028682495 67:0.003132157 68:0.0021601291 69:-0.0026194428 70:-0.012792161 71:-0.033630457 72:-0.0019458332 73:-0.0023588792 74:0.01311807 75:0.00689351 76:-0.0080819363 77:0.0087743821 78:-0.0029457861 79:0.016542369 80:-0.0089984434 81:-0.0038177674 82:0.010070856 83:-0.0018535086 84:0.0086518982 85:0.01246578 86:0.012015945 87:-0.0027367738 88:0.0077289492 89:0.012655667 90:-0.015602772 91:0.014962562 92:0.0092691639 93:-0.028533749 94:-0.001431931 95:-0.012150133 96:-0.0065085203 97:-0.0037441554 98:-0.023609048 99:-0.0051651644 100:0.019622158 101:0.011551314 102:-0.0037038613 103:-0.0057485527 104:0.015248134 105:-0.0092800725 106:0.0034628473 107:0.0048186444 108:0.00024289268 109:0.0020583505 110:-0.012964479 111:0.012331114 112:0.0031009021 113:0.0003334792 114:0.0091759553 115:-0.015663687 116:-0.00096379896 117:-0.0035870415 118:0.00037975484 119:-0.0091947746 120:0.0013627944 121:-0.0077207494 122:0.0150022 123:0.0068305284 124:0.0039085485 125:-0.024426445 126:0.0098536666 127:-0.0026568898 128:-0.013914004 129:-0.0062320512 130:-0.0038219658 131:-0.0085315406 132:-0.0023517504 133:-0.0074039949 134:-0.010867279 135:-0.012436538 136:-0.0013183405 137:-0.01301731 138:-0.021188404 139:0.0059832074 140:0.015834944 141:-0.0090938397 142:0.025732465 143:-0.01254869 144:0.0064802561 145:0.0043037543 146:0.012135511 147:0.014834413 148:0.00020968728 149:-0.0072144456 150:-0.0089424616 151:0.011063757 152:0.013127861 153:0.0056661721 154:-0.0046263314 155:-0.001802328 156:-0.0060006371 157:0.0079377051 158:0.0025036931 159:0.0081536537 160:0.0015109868 161:0.0024437068 162:0.01493841 163:-0.010592451 164:0.005519419 165:-0.0085911676 166:-0.0070247785 167:0.0041332645 168:0.0090527916 169:-0.0066241142 170:0.0074711214 171:-0.003440121 172:0.0079691866 173:0.0029570241 174:0.02041514 175:0.0027675445 176:0.0060947794 177:-0.0025773784 178:-0.0025666498 179:-0.0090692788 180:0.0062500816 181:0.0003349703 182:0.0085079847 183:-0.0036420925 184:-0.0097109834 185:-0.01538134 186:0.0033763489 187:0.0013498056 188:0.002469372 189:0.016550712 190:0.00096284185 191:0.0028931813 192:0.0088456413 193:0.0037670447 194:0.00056977064 195:0.0070773717 196:-0.0061960318 197:0.0060902289 198:-0.0019795597 199:-0.0039879759 200:-0.0039312853 #
-0.0098684210526315783995610075862714 1:0.023206064 2:-0.046224933 3:-0.057767302 4:0.070765696 5:-0.0092693064 6:-0.0050763739 7:0.053728435 8:-0.0064329859 9:0.090583429 10:0.046045154 11:0.0069339434 12:-0.10292438 13:0.080884732 14:-0.0051029953 15:0.010690149 16:0.034716669 17:0.028240969 18:-0.031477358 19:0.0052616764 20:-0.030134672 21:-0.0039094011 22:-0.010305047 23:0.0027264259 24:0.016656337 25:-0.0016997288 26:0.018487871 27:-0.052771717 28:0.014047167 29:0.014179651 30:-0.019635836 31:-0.04241363 32:0.0028746987 33:-0.0037659768 34:-0.0083131762 35:0.036594298 36:0.020324873 37:-0.0070869708 38:0.019034386 39:-0.019598089 40:0.0044879369 41:0.021069331 42:-0.008348872 43:0.0032372249 44:0.024879508 45:0.010319239 46:-0.034995928 47:-0.0024240261 48:-0.0039598057 49:-0.0072529875 50:-0.012532894 51:-0.0052211289 52:-0.0082478961 53:-0.043923032 54:-0.017905926 55:-0.027254634 56:0.0027373645 57:-0.0048945826 58:-0.015725968 59:-0.017721415 60:0.0013225445 61:-0.015348392 62:0.0021914535 63:0.0060851332 64:0.0086384024 65:0.013578791 66:-0.018826241 67:-0.011737572 68:0.014271171 69:0.012458217 70:0.011196692 71:-0.022829965 72:-0.00044517638 73:0.022078652 74:0.015780527 75:0.0059576957 76:0.010584398 77:-0.017124021 78:-0.041441869 79:0.021867434 80:-0.028334605 81:0.0042002141 82:0.020112818 83:0.0029767563 84:-0.01452889 85:0.011835448 86:0.0012768172 87:-0.014495613 88:0.0031099131 89:0.0079601407 90:-0.03065278 91:-0.015013725 92:0.0085613644 93:-0.0056109247 94:-0.002991478 95:0.012847613 96:-0.0043285531 97:-0.011589804 98:-0.0095353974 99:-0.0064003225 100:0.002286369 101:-0.0071596853 102:0.0027436579 103:-0.00410651 104:0.018252671 105:-0.0030643234 106:0.00033208265 107:0.010196719 108:-0.011179166 109:-0.015881604 110:-0.017016439 111:0.0088909939 112:0.031037351 113:-0.0029481263 114:0.0063099125 115:-0.009635184 116:-0.00019845745 117:-0.01030982 118:-0.010268321 119:0.0036417148 120:-0.0051306109 121:-0.021024246 122:-0.0020989385 123:-0.0032957976 124:-0.009423784 125:-0.018236486 126:-0.00019581504 127:-0.0017304239 128:-0.0079187797 129:0.013015086 130:-0.0051862523 131:-0.009934661 132:-0.0018711311 133:0.0028031722 134:-0.0080845291 135:-0.0095948633 136:0.014209098 137:-0.0011149487 138:-0.015633186 139:0.0021514944 140:0.012821016 141:-0.010552811 142:0.0098665254 143:0.0022414015 144:0.007641546 145:0.0051246574 146:0.011705465 147:0.0011085827 148:0.0023487532 149:-0.0088116238 150:-0.015843228 151:0.017178958 152:-0.0045243637 153:-0.0017772979 154:0.0034766546 155:0.017586146 156:-0.018643118 157:0.0090210326 158:-0.0072260615 159:0.0033623392 160:0.0056772027 161:-0.0032411038 162:0.0011555769 163:-0.0046134153 164:-0.0080482243 165:-0.012265229 166:0.0057063834 167:-0.0042762822 168:-0.0067046955 169:0.0041780798 170:0.0044513568 171:-0.0011646812 172:0.0024506496 173:-0.0080508878 174:0.011909899 175:0.0027302331 176:0.0061613554 177:-0.0076325187 178:-0.010952761 179:-0.0012949926 180:0.00023417374 181:0.00027836597 182:0.0054834569 183:-0.0040496555 184:-0.00011408829 185:-0.0066426052 186:-0.0012008793 187:-0.00078360894 188:0.0017686592 189:0.0004870843 190:0.0098910928 191:-0.0028680745 192:0.012588494 193:-0.01027956 194:0.0047781509 195:0.007771092 196:-0.0056901197 197:0.0039362609 198:0.0078445226 199:-0.0093268324 200:0.0012047895 #
0.0098684210526315783995610075862714 1:0.020927487 2:-0.10714184 3:0.003322148 4:0.056222793 5:0.02783622 6:-0.030436728 7:0.052580826 8:-0.0036354328 9:0.090319149 10:0.0084760869 11:-0.00052249484 12:-0.14061964 13:0.10639646 14:-0.057960093 15:0.019002877 16:0.092911348 17:0.083216235 18:0.027261026 19:0.0060043586 20:-0.058683701 21:-0.012266783 22:0.0018204413 23:0.046857063 24:0.016744727 25:-0.016162287 26:0.043736745 27:-0.030494275 28:0.058269415 29:0.035908192 30:-0.0040773293 31:-0.055090673 32:-0.032993458 33:0.030008553 34:0.0051528411 35:-0.0032379471 36:0.023451488 37:-0.023524782 38:0.0025912384 39:-0.0083467159 40:0.020656912 41:0.055197839 42:0.00032556476 43:0.030960623 44:0.022082206 45:0.012216842 46:-0.0083049452 47:0.025617573 48:0.010338784 49:0.0020892068 50:-0.0038048166 51:0.015306978 52:-0.0086427378 53:-0.019232396 54:-0.029151484 55:-0.0030199601 56:-0.0069822897 57:-0.016884109 58:-0.0053367824 59:0.0022278535 60:0.028046438 61:0.011773887 62:0.0093469033 63:0.012965896 64:-0.01370648 65:0.027046448 66:-0.0028682495 67:0.003132157 68:0.0021601291 69:-0.0026194428 70:-0.012792161 71:-0.033630457 72:-0.0019458332 73:-0.0023588792 74:0.01311807 75:0.00689351 76:-0.0080819363 77:0.0087743821 78:-0.0029457861 79:0.016542369 80:-0.0089984434 81:-0.0038177674 82:0.010070856 83:-0.0018535086 84:0.0086518982 85:0.01246578 86:0.012015945 87:-0.0027367738 88:0.0077289492 89:0.012655667 90:-0.015602772 91:0.014962562 92:0.0092691639 93:-0.028533749 94:-0.001431931 95:-0.012150133 96:-0.0065085203 97:-0.0037441554 98:-0.023609048 99:-0.0051651644 100:0.019622158 101:0.011551314 102:-0.0037038613 103:-0.0057485527 104:0.015248134 105:-0.0092800725 106:0.0034628473 107:0.0048186444 108:0.00024289268 109:0.0020583505 110:-0.012964479 111:0.012331114 112:0.0031009021 113:0.0003334792 114:0.0091759553 115:-0.015663687 116:-0.00096379896 117:-0.0035870415 118:0.00037975484 119:-0.0091947746 120:0.0013627944 121:-0.0077207494 122:0.0150022 123:0.0068305284 124:0.0039085485 125:-0.024426445 126:0.0098536666 127:-0.0026568898 128:-0.013914004 129:-0.0062320512 130:-0.0038219658 131:-0.0085315406 132:-0.0023517504 133:-0.0074039949 134:-0.010867279 135:-0.012436538 136:-0.0013183405 137:-0.01301731 138:-0.021188404 139:0.0059832074 140:0.015834944 141:-0.0090938397 142:0.025732465 143:-0.01254869 144:0.0064802561 145:0.0043037543 146:0.012135511 147:0.014834413 148:0.00020968728 149:-0.0072144456 150:-0.0089424616 151:0.011063757 152:0.013127861 153:0.0056661721 154:-0.0046263314 155:-0.001802328 156:-0.0060006371 157:0.0079377051 158:0.0025036931 159:0.0081536537 160:0.0015109868 161:0.0024437068 162:0.01493841 163:-0.010592451 164:0.005519419 165:-0.0085911676 166:-0.0070247785 167:0.0041332645 168:0.0090527916 169:-0.0066241142 170:0.0074711214 171:-0.003440121 172:0.0079691866 173:0.0029570241 174:0.02041514 175:0.0027675445 176:0.0060947794 177:-0.0025773784 178:-0.0025666498 179:-0.0090692788 180:0.0062500816 181:0.0003349703 182:0.0085079847 183:-0.0036420925 184:-0.0097109834 185:-0.01538134 186:0.0033763489 187:0.0013498056 188:0.002469372 189:0.016550712 190:0.00096284185 191:0.0028931813 192:0.0088456413 193:0.0037670447 194:0.00056977064 195:0.0070773717 196:-0.0061960318 197:0.0060902289 198:-0.0019795597 199:-0.0039879759 200:-0.0039312853 #
0.0098684210526315783995610075862714 1:-0.06006759 2:0.075655028 3:0.086498626 4:0.12098682 5:0.012784039 6:-0.0078079188 7:0.043323316 8:0.0056053717 9:0.074399695 10:-0.03886712 11:-0.0082539683 12:0.032790717 13:-0.093557328 14:0.029358517 15:-0.027500411 16:0.023952618 17:-0.012777811 18:-0.046824008 19:0.035417903 20:0.024675043 21:-0.031362671 22:-0.035455868 23:0.021148425 24:0.046520714 25:0.024565224 26:0.070497125 27:0.0030371954 28:-0.013364223 29:-0.03069536 30:-0.028414402 31:0.052542705 32:-0.058352869 33:0.043894202 34:-0.01064318 35:0.02885926 36:0.0026242195 37:-0.0033278305 38:-0.048555218 39:0.0073419427 40:0.0016329848 41:-0.00015883597 42:-0.0075568268 43:0.050560053 44:-0.0053301519 45:0.006874593 46:0.010218267 47:0.005877879 48:0.020880966 49:-0.015190484 50:0.004652509 51:-0.037911586 52:-0.0044213734 53:0.015979681 54:-0.027204331 55:0.0081851995 56:-0.0051522721 57:0.0089844447 58:-0.022079714 59:-0.00096141454 60:-0.014034522 61:-0.010387512 62:0.00017633617 63:0.021491794 64:0.037150029 65:0.0054090088 66:0.0014325503 67:-0.019563641 68:0.0024936404 69:0.034904286 70:-0.028296659 71:-0.0009443122 72:0.0037977577 73:0.022519497 74:0.015935961 75:-0.016178818 76:0.022340022 77:0.013682376 78:-0.0097318208 79:-0.016364332 80:0.013397072 81:0.0019417176 82:-0.00026491508 83:0.013918493 84:0.0039341743 85:0.011177884 86:0.004039946 87:0.0066053928 88:0.00064302649 89:-0.015084173 90:-0.0097928299 91:-0.025227519 92:0.0088174865 93:-0.015440376 94:-0.01179099 95:-0.0057403096 96:0.012332136 97:0.0049213194 98:-0.023991432 99:-0.010223297 100:-0.013905281 101:-0.0007140832 102:-0.0035341205 103:0.0024811844 104:-0.00055664527 105:0.0021482401 106:-0.009635929 107:-0.018635424 108:0.0010174798 109:0.0038469669 110:0.0054682582 111:0.011877554 112:0.0087767905 113:0.0018894316 114:-0.0093237665 115:0.013400577 116:-0.019704264 117:-0.003491665 118:-0.0055350726 119:-0.015424361 120:0.0074804095 121:-0.010937522 122:0.0054161348 123:0.0026677279 124:-0.0064451341 125:-0.007913637 126:0.0043420778 127:-0.0040240642 128:-0.0010258377 129:0.0085803969 130:-0.0028475728 131:-0.0084035713 132:-0.0036583168 133:-0.010741591 134:-0.0010787034 135:0.0078521948 136:-0.013829974 137:-0.0021757975 138:0.012888297 139:-0.0093168449 140:-0.012814689 141:0.019201187 142:-0.0065456079 143:0.0055137901 144:0.0022891331 145:-0.021767326 146:-0.013494277 147:0.0031372609 148:-0.0021070861 149:0.013502409 150:0.010445126 151:-0.0013709705 152:-0.0053172689 153:0.0012634337 154:0.0017587235 155:0.00013419104 156:-0.0090214033 157:-0.012747676 158:-0.004266371 159:0.0012412563 160:0.0087659266 161:-0.0085924771 162:-0.0031282108 163:-0.0069061569 164:-0.014167577 165:-0.0085157007 166:-0.011229931 167:0.0081982231 168:0.0057780072 169:-0.0085775265 170:0.0016450707 171:-0.017443601 172:-0.0037718655 173:0.0098345736 174:0.0012743186 175:-0.013916626 176:-0.0045236261 177:0.0086839581 178:0.0011133086 179:0.0028030272 180:0.011967183 181:0.0034185231 182:-0.0045964769 183:-0.016957486 184:-0.0051457067 185:0.0044638291 186:0.0044616228 187:-0.010274557 188:-0.011034008 189:0.0099662226 190:-0.0048956419 191:0.0034436733 192:-0.0047300397 193:0.0076094149 194:-0.0054124193 195:0.0077082179 196:-0.01466439 197:-0.0093265846 198:-0.0053342925 199:-0.0078399535 200:0.010863462 #
-0.0098684210526315783995610075862714 1:-0.017754003 2:0.025506657 3:0.059112858 4:0.13013005 5:0.034038391 6:-0.035830729 7:0.034877732 8:0.035230972 9:0.076231726 10:-0.023140129 11:0.015258877 12:0.054043293 13:-0.071152166 14:0.041268919 15:-0.0086282389 16:0.021526761 17:-0.0085435873 18:-0.032280926 19:0.025357516 20:-0.0034939179 21:0.030123558 22:-0.026809702 23:-0.0044807866 24:0.05566261 25:0.0047492166 26:0.023740584 27:0.057838984 28:-0.042568836 29:-0.025737656 30:-0.011864148 31:-0.0036359676 32:-0.033757962 33:0.049246512 34:-0.0059176381 35:0.011247479 36:-0.024315869 37:-0.0012052436 38:-0.05595221 39:-0.00028453046 40:-0.0038472207 41:-0.0053181062 42:-0.033127572 43:0.030563768 44:-0.0059847119 45:0.036680777 46:0.010980084 47:0.018451145 48:0.004906476 49:-0.013286001 50:-0.0037471645 51:-0.012167582 52:0.0015299481 53:0.0024687485 54:-0.017758336 55:-0.005841386 56:-0.015320914 57:0.013216645 58:-0.0073932973 59:0.0088601662 60:-0.0037979668 61:0.0016635768 62:-0.0084207654 63:0.02816475 64:0.022947837 65:-0.0014396771 66:-0.002281623 67:0.0022003339 68:-0.02678958 69:0.023485642 70:-0.0036535473 71:0.0019586349 72:-9.9152276e-05 73:0.0033858062 74:0.0077753142 75:-0.00088364218 76:0.034863684 77:0.0034286547 78:0.01128258 79:-0.0072469241 80:0.023932394 81:0.01124637 82:-0.012553339 83:0.0046478449 84:-0.010744948 85:0.0092030559 86:0.0094247013 87:0.006735614 88:-0.020776043 89:-0.014740728 90:0.0050119953 91:-0.019648803 92:0.012033485 93:-0.0060766167 94:-0.013605384 95:0.004490918 96:0.01012282 97:0.0010090369 98:-0.0049545998 99:-0.0084795374 100:-0.0066450471 101:-0.0021540534 102:0.0023237464 103:0.0055837319 104:0.01046249 105:-0.0030814775 106:-0.00067499641 107:-0.010294604 108:-0.011152668 109:0.005072311 110:0.001797592 111:-0.01117744 112:0.011624346 113:0.0094185751 114:-0.0010020977 115:0.018018786 116:-0.013970834 117:-0.0025818481 118:-0.0083580036 119:0.001969835 120:0.0041559925 121:-0.026046397 122:0.0073202988 123:-0.0044662175 124:0.0048269918 125:-0.0014079873 126:-0.0047279033 127:0.0097938934 128:-0.01179067 129:0.0034912385 130:0.0091394577 131:0.0062256902 132:0.0099085383 133:-0.026304051 134:-0.012513189 135:-0.00096201996 136:-0.012516555 137:-0.010062899 138:0.0092466436 139:-0.0040051602 140:-0.007204446 141:0.0077293399 142:-0.007068289 143:0.00062297733 144:5.7521123e-05 145:-0.011958817 146:-0.006238075 147:-0.0081079165 148:-0.0012789563 149:0.0071367607 150:-0.011574571 151:0.00094444928 152:-0.0061073038 153:-0.0092950081 154:-0.0038965894 155:0.0027040734 156:-0.011453286 157:-0.0079093575 158:-0.001873763 159:0.0012613822 160:0.0030041942 161:-0.016943065 162:-0.0008543182 163:-0.0011367095 164:-0.0093367686 165:-0.0017158644 166:-0.01454164 167:-0.0040936791 168:-0.0024811034 169:-0.0032540618 170:-0.0050682477 171:-0.012143579 172:0.00050122291 173:0.0061159148 174:0.0041236966 175:-0.0083202068 176:-0.0031087059 177:-0.0042084795 178:0.0081495009 179:-0.0037908955 180:0.0049079144 181:-0.0012669486 182:0.0025563163 183:-0.0074861296 184:0.0018176973 185:0.0083829481 186:0.0091449618 187:-0.0039196122 188:-0.010003079 189:-0.00067945366 190:-0.007021775 191:0.0054696901 192:-0.0002957079 193:0.0015081418 194:-0.00095337426 195:0.0075858748 196:-0.0082521159 197:0.011003993 198:-0.0049880156 199:-0.0079908101 200:0.012988325 #
0.0098684210526315783995610075862714 1:-0.06006759 2:0.075655028 3:0.086498626 4:0.12098682 5:0.012784039 6:-0.0078079188 7:0.043323316 8:0.0056053717 9:0.074399695 10:-0.03886712 11:-0.0082539683 12:0.032790717 13:-0.093557328 14:0.029358517 15:-0.027500411 16:0.023952618 17:-0.012777811 18:-0.046824008 19:0.035417903 20:0.024675043 21:-0.031362671 22:-0.035455868 23:0.021148425 24:0.046520714 25:0.024565224 26:0.070497125 27:0.0030371954 28:-0.013364223 29:-0.03069536 30:-0.028414402 31:0.052542705 32:-0.058352869 33:0.043894202 34:-0.01064318 35:0.02885926 36:0.0026242195 37:-0.0033278305 38:-0.048555218 39:0.0073419427 40:0.0016329848 41:-0.00015883597 42:-0.0075568268 43:0.050560053 44:-0.0053301519 45:0.006874593 46:0.010218267 47:0.005877879 48:0.020880966 49:-0.015190484 50:0.004652509 51:-0.037911586 52:-0.0044213734 53:0.015979681 54:-0.027204331 55:0.0081851995 56:-0.0051522721 57:0.0089844447 58:-0.022079714 59:-0.00096141454 60:-0.014034522 61:-0.010387512 62:0.00017633617 63:0.021491794 64:0.037150029 65:0.0054090088 66:0.0014325503 67:-0.019563641 68:0.0024936404 69:0.034904286 70:-0.028296659 71:-0.0009443122 72:0.0037977577 73:0.022519497 74:0.015935961 75:-0.016178818 76:0.022340022 77:0.013682376 78:-0.0097318208 79:-0.016364332 80:0.013397072 81:0.0019417176 82:-0.00026491508 83:0.013918493 84:0.0039341743 85:0.011177884 86:0.004039946 87:0.0066053928 88:0.00064302649 89:-0.015084173 90:-0.0097928299 91:-0.025227519 92:0.0088174865 93:-0.015440376 94:-0.01179099 95:-0.0057403096 96:0.012332136 97:0.0049213194 98:-0.023991432 99:-0.010223297 100:-0.013905281 101:-0.0007140832 102:-0.0035341205 103:0.0024811844 104:-0.00055664527 105:0.0021482401 106:-0.009635929 107:-0.018635424 108:0.0010174798 109:0.0038469669 110:0.0054682582 111:0.011877554 112:0.0087767905 113:0.0018894316 114:-0.0093237665 115:0.013400577 116:-0.019704264 117:-0.003491665 118:-0.0055350726 119:-0.015424361 120:0.0074804095 121:-0.010937522 122:0.0054161348 123:0.0026677279 124:-0.0064451341 125:-0.007913637 126:0.0043420778 127:-0.0040240642 128:-0.0010258377 129:0.0085803969 130:-0.0028475728 131:-0.0084035713 132:-0.0036583168 133:-0.010741591 134:-0.0010787034 135:0.0078521948 136:-0.013829974 137:-0.0021757975 138:0.012888297 139:-0.0093168449 140:-0.012814689 141:0.019201187 142:-0.0065456079 143:0.0055137901 144:0.0022891331 145:-0.021767326 146:-0.013494277 147:0.0031372609 148:-0.0021070861 149:0.013502409 150:0.010445126 151:-0.0013709705 152:-0.0053172689 153:0.0012634337 154:0.0017587235 155:0.00013419104 156:-0.0090214033 157:-0.012747676 158:-0.004266371 159:0.0012412563 160:0.0087659266 161:-0.0085924771 162:-0.0031282108 163:-0.0069061569 164:-0.014167577 165:-0.0085157007 166:-0.011229931 167:0.0081982231 168:0.0057780072 169:-0.0085775265 170:0.0016450707 171:-0.017443601 172:-0.0037718655 173:0.0098345736 174:0.0012743186 175:-0.013916626 176:-0.0045236261 177:0.0086839581 178:0.0011133086 179:0.0028030272 180:0.011967183 181:0.0034185231 182:-0.0045964769 183:-0.016957486 184:-0.0051457067 185:0.0044638291 186:0.0044616228 187:-0.010274557 188:-0.011034008 189:0.0099662226 190:-0.0048956419 191:0.0034436733 192:-0.0047300397 193:0.0076094149 194:-0.0054124193 195:0.0077082179 196:-0.01466439 197:-0.0093265846 198:-0.0053342925 199:-0.0078399535 200:0.010863462 #
-0.0098684210526315783995610075862714 1:-0.017754003 2:0.025506657 3:0.059112858 4:0.13013005 5:0.034038391 6:-0.035830729 7:0.034877732 8:0.035230972 9:0.076231726 10:-0.023140129 11:0.015258877 12:0.054043293 13:-0.071152166 14:0.041268919 15:-0.0086282389 16:0.021526761 17:-0.0085435873 18:-0.032280926 19:0.025357516 20:-0.0034939179 21:0.030123558 22:-0.026809702 23:-0.0044807866 24:0.05566261 25:0.0047492166 26:0.023740584 27:0.057838984 28:-0.042568836 29:-0.025737656 30:-0.011864148 31:-0.0036359676 32:-0.033757962 33:0.049246512 34:-0.0059176381 35:0.011247479 36:-0.024315869 37:-0.0012052436 38:-0.05595221 39:-0.00028453046 40:-0.0038472207 41:-0.0053181062 42:-0.033127572 43:0.030563768 44:-0.0059847119 45:0.036680777 46:0.010980084 47:0.018451145 48:0.004906476 49:-0.013286001 50:-0.0037471645 51:-0.012167582 52:0.0015299481 53:0.0024687485 54:-0.017758336 55:-0.005841386 56:-0.015320914 57:0.013216645 58:-0.0073932973 59:0.0088601662 60:-0.0037979668 61:0.0016635768 62:-0.0084207654 63:0.02816475 64:0.022947837 65:-0.0014396771 66:-0.002281623 67:0.0022003339 68:-0.02678958 69:0.023485642 70:-0.0036535473 71:0.0019586349 72:-9.9152276e-05 73:0.0033858062 74:0.0077753142 75:-0.00088364218 76:0.034863684 77:0.0034286547 78:0.01128258 79:-0.0072469241 80:0.023932394 81:0.01124637 82:-0.012553339 83:0.0046478449 84:-0.010744948 85:0.0092030559 86:0.0094247013 87:0.006735614 88:-0.020776043 89:-0.014740728 90:0.0050119953 91:-0.019648803 92:0.012033485 93:-0.0060766167 94:-0.013605384 95:0.004490918 96:0.01012282 97:0.0010090369 98:-0.0049545998 99:-0.0084795374 100:-0.0066450471 101:-0.0021540534 102:0.0023237464 103:0.0055837319 104:0.01046249 105:-0.0030814775 106:-0.00067499641 107:-0.010294604 108:-0.011152668 109:0.005072311 110:0.001797592 111:-0.01117744 112:0.011624346 113:0.0094185751 114:-0.0010020977 115:0.018018786 116:-0.013970834 117:-0.0025818481 118:-0.0083580036 119:0.001969835 120:0.0041559925 121:-0.026046397 122:0.0073202988 123:-0.0044662175 124:0.0048269918 125:-0.0014079873 126:-0.0047279033 127:0.0097938934 128:-0.01179067 129:0.0034912385 130:0.0091394577 131:0.0062256902 132:0.0099085383 133:-0.026304051 134:-0.012513189 135:-0.00096201996 136:-0.012516555 137:-0.010062899 138:0.0092466436 139:-0.0040051602 140:-0.007204446 141:0.0077293399 142:-0.007068289 143:0.00062297733 144:5.7521123e-05 145:-0.011958817 146:-0.006238075 147:-0.0081079165 148:-0.0012789563 149:0.0071367607 150:-0.011574571 151:0.00094444928 152:-0.0061073038 153:-0.0092950081 154:-0.0038965894 155:0.0027040734 156:-0.011453286 157:-0.0079093575 158:-0.001873763 159:0.0012613822 160:0.0030041942 161:-0.016943065 162:-0.0008543182 163:-0.0011367095 164:-0.0093367686 165:-0.0017158644 166:-0.01454164 167:-0.0040936791 168:-0.0024811034 169:-0.0032540618 170:-0.0050682477 171:-0.012143579 172:0.00050122291 173:0.0061159148 174:0.0041236966 175:-0.0083202068 176:-0.0031087059 177:-0.0042084795 178:0.0081495009 179:-0.0037908955 180:0.0049079144 181:-0.0012669486 182:0.0025563163 183:-0.0074861296 184:0.0018176973 185:0.0083829481 186:0.0091449618 187:-0.0039196122 188:-0.010003079 189:-0.00067945366 190:-0.007021775 191:0.0054696901 192:-0.0002957079 193:0.0015081418 194:-0.00095337426 195:0.0075858748 196:-0.0082521159 197:0.011003993 198:-0.0049880156 199:-0.0079908101 200:0.012988325 #
0.0098684210526315783995610075862714 1:-0.051788721 2:0.063116513 3:0.062510215 4:0.15643398 5:0.020424701 6:-0.04360956 7:0.017465001 8:0.019445632 9:0.06443087 10:-0.051174775 11:0.030056464 12:0.039696231 13:-0.099177852 14:0.052169379 15:-0.014931994 16:0.020628041 17:0.023761675 18:-0.051862307 19:0.033894971 20:0.016377529 21:0.0098472927 22:-0.049063124 23:-0.037985276 24:0.045564726 25:-0.00072383886 26:0.05829737 27:0.015459424 28:-0.04664145 29:-0.014813675 30:0.0046237581 31:0.023602847 32:-0.045743983 33:0.039350424 34:-0.0053676325 35:0.014058968 36:-0.017215895 37:-0.0083368616 38:-0.027717825 39:0.021146867 40:-0.010609502 41:-0.014243219 42:-0.0008191861 43:0.045446973 44:0.0081700571 45:0.040894706 46:0.017755773 47:0.0045281588 48:0.024395168 49:-0.0055256183 50:-0.013842971 51:-0.029920807 52:-0.018973468 53:0.0012866152 54:-0.028303452 55:0.023893166 56:-0.014910004 57:0.01666926 58:-0.014251446 59:0.011246284 60:-0.020513499 61:-0.011605787 62:-0.01635848 63:0.0034007307 64:0.034414969 65:0.027016638 66:-0.0055411672 67:-0.010788947 68:-0.0092642047 69:0.0062559922 70:-0.018519161 71:0.012527998 72:-0.0077037429 73:-0.010331848 74:-0.003228588 75:-0.023335857 76:0.0010549105 77:0.01738709 78:-0.018739777 79:0.023227043 80:0.0056347204 81:0.003157035 82:0.0025620777 83:0.0021985704 84:-0.0085819047 85:0.0074620089 86:-0.0018112322 87:-0.0080917431 88:-0.002477217 89:0.0083032902 90:0.014751036 91:-0.017420525 92:0.013640165 93:-0.0047565014 94:-0.004213843 95:0.0063623786 96:0.012548514 97:0.01228812 98:-0.021724783 99:-0.025342917 100:0.0092600584 101:-0.0031504605 102:-0.0055600442 103:0.0010003789 104:-0.0023700078 105:0.0019885318 106:-0.017793825 107:-0.01021573 108:0.0066636479 109:-0.011526188 110:-0.008727354 111:-0.0017064221 112:-0.016552813 113:0.0075507406 114:-0.019156685 115:0.02015225 116:-0.010188825 117:0.0057156193 118:0.00056751893 119:-0.00062025501 120:-0.00093175459 121:-0.0095697651 122:0.011435277 123:-0.0028581056 124:0.0082436297 125:0.0019417423 126:0.004021809 127:0.0065867486 128:-0.011508306 129:-0.0075951335 130:-0.0084012076 131:-0.0036016568 132:-0.0019886771 133:-0.0099177947 134:-0.0092100641 135:-0.0015146504 136:-0.01701094 137:0.0048594279 138:0.0069028195 139:0.0019552403 140:-0.008437139 141:0.009690172 142:0.0067234933 143:-0.002038328 144:0.0015534235 145:-0.00076267991 146:-0.002457724 147:-0.0050427881 148:0.014137198 149:0.0020264313 150:-0.0077650556 151:0.0026417247 152:0.0015677016 153:-0.0027316455 154:0.0052691717 155:-0.0015341513 156:-0.0065436484 157:-0.00484468 158:-0.0043505705 159:-0.00043155294 160:0.0055488693 161:-0.0086803818 162:0.0048659118 163:-0.00073233509 164:-0.011022839 165:0.00031261376 166:-0.014347013 167:-0.0037237401 168:-0.0012314324 169:0.0096020438 170:0.0095441537 171:-0.01243913 172:-0.0093152691 173:0.00049952231 174:-0.0072668726 175:-0.011025209 176:-0.0013408657 177:-0.0083429851 178:-0.0066168737 179:-0.0026321684 180:0.012038925 181:0.0056320382 182:0.0051044761 183:-0.0078912694 184:-0.0079072202 185:0.0019982073 186:0.0024247249 187:-0.017564982 188:0.0037086285 189:-0.0023418223 190:-0.00032560786 191:-0.00010710558 192:-0.0017990643 193:0.001153156 194:-0.0040827589 195:0.0070457798 196:-0.0066593797 197:-0.0025244011 198:0.0019233184 199:-0.0070004836 200:0.0045350995 #
-0.0098684210526315783995610075862714 1:0.0041219192 2:0.058971565 3:0.054403689 4:0.11190764 5:0.014768047 6:-0.03592122 7:0.017633285 8:0.02641595 9:0.05634452 10:-0.027089018 11:-0.0026656089 12:0.029223744 13:-0.062491734 14:0.045401394 15:-0.0064388691 16:0.013804708 17:-0.035534419 18:-0.059632972 19:0.0085466681 20:0.0016080649 21:0.027994839 22:-0.01156195 23:-0.0014527627 24:0.07448034 25:0.020196991 26:0.025759812 27:0.01197294 28:-0.024139356 29:-0.022826986 30:0.0054260497 31:0.029545473 32:-0.057477877 33:0.054385602 34:0.025322383 35:0.035477966 36:-0.0066447766 37:-0.01446471 38:-0.038657378 39:0.013758851 40:-0.010886208 41:-0.010056956 42:-0.033017427 43:0.011575548 44:0.00076945132 45:0.030738391 46:0.0015402682 47:-0.026460925 48:0.0060811499 49:-0.0080629587 50:-0.0093124583 51:-0.034290709 52:0.0033464804 53:-0.0048211063 54:-0.021627221 55:0.0028329946 56:5.5515316e-05 57:0.017718211 58:-0.031789284 59:0.025514206 60:-0.019744329 61:-0.010552811 62:-0.031069836 63:0.006411694 64:0.026973039 65:0.038251568 66:-0.00061436679 67:-0.0093182549 68:0.016320311 69:0.022934675 70:-0.023213888 71:-0.0011480415 72:-0.01112285 73:0.012483205 74:0.013625236 75:-0.00031010126 76:0.0025123917 77:0.015854124 78:-0.0040338659 79:-0.0084480699 80:0.02001771 81:0.003588449 82:-0.023643443 83:0.0027024308 84:0.014578612 85:0.0031768251 86:-0.0039481074 87:-0.004122219 88:-0.013693077 89:-0.0073770126 90:-0.012135342 91:-0.0065126149 92:0.0056310035 93:-0.0022087747 94:-0.017309882 95:-0.0034808191 96:0.0058594774 97:0.027048323 98:-0.0075177317 99:-0.0096974773 100:0.020290058 101:0.010834958 102:0.019878155 103:-0.006748755 104:0.014385463 105:-0.0019080292 106:0.004237798 107:-0.004957282 108:0.017469445 109:0.015282301 110:0.014938409 111:0.010901272 112:-0.010533139 113:0.011103056 114:-0.00053319463 115:0.008352139 116:-0.013999942 117:0.013290161 118:0.010528766 119:0.0002640865 120:-0.012885148 121:-0.020203432 122:-0.019966993 123:-0.0031037978 124:0.018379513 125:0.0042390237 126:0.017573388 127:0.0093716634 128:0.0058292109 129:-0.00074992329 130:-0.025446704 131:0.003286354 132:0.0041203806 133:-0.014731265 134:-0.0039972672 135:-0.00058372965 136:-0.0072308015 137:-0.0043905606 138:0.0062873634 139:0.011655202 140:-0.0092251021 141:0.0088930847 142:-0.0053518331 143:0.018771468 144:0.010413738 145:-0.0085116429 146:-0.010270431 147:0.0052269674 148:-0.0040078745 149:-0.0019999899 150:0.0083038546 151:0.0085539073 152:-0.0032180995 153:-0.015504417 154:-0.011808497 155:-0.0014388483 156:-0.00062609039 157:-0.00074194348 158:-0.0077249757 159:0.005643025 160:0.0049653412 161:-0.0084861275 162:-0.0064844135 163:-0.0094379429 164:0.0051671206 165:-0.014166281 166:-0.015649542 167:-0.0024024805 168:0.012123954 169:0.02345581 170:0.0055748248 171:-0.011725605 172:-0.0068831998 173:0.0016908745 174:0.0028559915 175:0.0012043383 176:-0.01129714 177:0.0061639375 178:-0.005082116 179:-0.0073406072 180:0.022657279 181:-0.0015452509 182:-0.00321394 183:-0.0068494212 184:-0.011799978 185:-0.0041626398 186:-0.0013137058 187:-0.0053267716 188:0.00026971719 189:0.00042311643 190:0.0080607999 191:0.0014757134 192:-0.0046964036 193:0.018897414 194:-0.00048029574 195:-0.0052129994 196:-0.0035358416 197:-0.0082727605 198:-0.015983386 199:-0.0065735141 200:0.004508276 #
0.0098684210526315783995610075862714 1:-0.051788721 2:0.063116513 3:0.062510215 4:0.15643398 5:0.020424701 6:-0.04360956 7:0.017465001 8:0.019445632 9:0.06443087 10:-0.051174775 11:0.030056464 12:0.039696231 13:-0.099177852 14:0.052169379 15:-0.014931994 16:0.020628041 17:0.023761675 18:-0.051862307 19:0.033894971 20:0.016377529 21:0.0098472927 22:-0.049063124 23:-0.037985276 24:0.045564726 25:-0.00072383886 26:0.05829737 27:0.015459424 28:-0.04664145 29:-0.014813675 30:0.0046237581 31:0.023602847 32:-0.045743983 33:0.039350424 34:-0.0053676325 35:0.014058968 36:-0.017215895 37:-0.0083368616 38:-0.027717825 39:0.021146867 40:-0.010609502 41:-0.014243219 42:-0.0008191861 43:0.045446973 44:0.0081700571 45:0.040894706 46:0.017755773 47:0.0045281588 48:0.024395168 49:-0.0055256183 50:-0.013842971 51:-0.029920807 52:-0.018973468 53:0.0012866152 54:-0.028303452 55:0.023893166 56:-0.014910004 57:0.01666926 58:-0.014251446 59:0.011246284 60:-0.020513499 61:-0.011605787 62:-0.01635848 63:0.0034007307 64:0.034414969 65:0.027016638 66:-0.0055411672 67:-0.010788947 68:-0.0092642047 69:0.0062559922 70:-0.018519161 71:0.012527998 72:-0.0077037429 73:-0.010331848 74:-0.003228588 75:-0.023335857 76:0.0010549105 77:0.01738709 78:-0.018739777 79:0.023227043 80:0.0056347204 81:0.003157035 82:0.0025620777 83:0.0021985704 84:-0.0085819047 85:0.0074620089 86:-0.0018112322 87:-0.0080917431 88:-0.002477217 89:0.0083032902 90:0.014751036 91:-0.017420525 92:0.013640165 93:-0.0047565014 94:-0.004213843 95:0.0063623786 96:0.012548514 97:0.01228812 98:-0.021724783 99:-0.025342917 100:0.0092600584 101:-0.0031504605 102:-0.0055600442 103:0.0010003789 104:-0.0023700078 105:0.0019885318 106:-0.017793825 107:-0.01021573 108:0.0066636479 109:-0.011526188 110:-0.008727354 111:-0.0017064221 112:-0.016552813 113:0.0075507406 114:-0.019156685 115:0.02015225 116:-0.010188825 117:0.0057156193 118:0.00056751893 119:-0.00062025501 120:-0.00093175459 121:-0.0095697651 122:0.011435277 123:-0.0028581056 124:0.0082436297 125:0.0019417423 126:0.004021809 127:0.0065867486 128:-0.011508306 129:-0.0075951335 130:-0.0084012076 131:-0.0036016568 132:-0.0019886771 133:-0.0099177947 134:-0.0092100641 135:-0.0015146504 136:-0.01701094 137:0.0048594279 138:0.0069028195 139:0.0019552403 140:-0.008437139 141:0.009690172 142:0.0067234933 143:-0.002038328 144:0.0015534235 145:-0.00076267991 146:-0.002457724 147:-0.0050427881 148:0.014137198 149:0.0020264313 150:-0.0077650556 151:0.0026417247 152:0.0015677016 153:-0.0027316455 154:0.0052691717 155:-0.0015341513 156:-0.0065436484 157:-0.00484468 158:-0.0043505705 159:-0.00043155294 160:0.0055488693 161:-0.0086803818 162:0.0048659118 163:-0.00073233509 164:-0.011022839 165:0.00031261376 166:-0.014347013 167:-0.0037237401 168:-0.0012314324 169:0.0096020438 170:0.0095441537 171:-0.01243913 172:-0.0093152691 173:0.00049952231 174:-0.0072668726 175:-0.011025209 176:-0.0013408657 177:-0.0083429851 178:-0.0066168737 179:-0.0026321684 180:0.012038925 181:0.0056320382 182:0.0051044761 183:-0.0078912694 184:-0.0079072202 185:0.0019982073 186:0.0024247249 187:-0.017564982 188:0.0037086285 189:-0.0023418223 190:-0.00032560786 191:-0.00010710558 192:-0.0017990643 193:0.001153156 194:-0.0040827589 195:0.0070457798 196:-0.0066593797 197:-0.0025244011 198:0.0019233184 199:-0.0070004836 200:0.0045350995 #
-0.0098684210526315783995610075862714 1:0.0041219192 2:0.058971565 3:0.054403689 4:0.11190764 5:0.014768047 6:-0.03592122 7:0.017633285 8:0.02641595 9:0.05634452 10:-0.027089018 11:-0.0026656089 12:0.029223744 13:-0.062491734 14:0.045401394 15:-0.0064388691 16:0.013804708 17:-0.035534419 18:-0.059632972 19:0.0085466681 20:0.0016080649 21:0.027994839 22:-0.01156195 23:-0.0014527627 24:0.07448034 25:0.020196991 26:0.025759812 27:0.01197294 28:-0.024139356 29:-0.022826986 30:0.0054260497 31:0.029545473 32:-0.057477877 33:0.054385602 34:0.025322383 35:0.035477966 36:-0.0066447766 37:-0.01446471 38:-0.038657378 39:0.013758851 40:-0.010886208 41:-0.010056956 42:-0.033017427 43:0.011575548 44:0.00076945132 45:0.030738391 46:0.0015402682 47:-0.026460925 48:0.0060811499 49:-0.0080629587 50:-0.0093124583 51:-0.034290709 52:0.0033464804 53:-0.0048211063 54:-0.021627221 55:0.0028329946 56:5.5515316e-05 57:0.017718211 58:-0.031789284 59:0.025514206 60:-0.019744329 61:-0.010552811 62:-0.031069836 63:0.006411694 64:0.026973039 65:0.038251568 66:-0.00061436679 67:-0.0093182549 68:0.016320311 69:0.022934675 70:-0.023213888 71:-0.0011480415 72:-0.01112285 73:0.012483205 74:0.013625236 75:-0.00031010126 76:0.0025123917 77:0.015854124 78:-0.0040338659 79:-0.0084480699 80:0.02001771 81:0.003588449 82:-0.023643443 83:0.0027024308 84:0.014578612 85:0.0031768251 86:-0.0039481074 87:-0.004122219 88:-0.013693077 89:-0.0073770126 90:-0.012135342 91:-0.0065126149 92:0.0056310035 93:-0.0022087747 94:-0.017309882 95:-0.0034808191 96:0.0058594774 97:0.027048323 98:-0.0075177317 99:-0.0096974773 100:0.020290058 101:0.010834958 102:0.019878155 103:-0.006748755 104:0.014385463 105:-0.0019080292 106:0.004237798 107:-0.004957282 108:0.017469445 109:0.015282301 110:0.014938409 111:0.010901272 112:-0.010533139 113:0.011103056 114:-0.00053319463 115:0.008352139 116:-0.013999942 117:0.013290161 118:0.010528766 119:0.0002640865 120:-0.012885148 121:-0.020203432 122:-0.019966993 123:-0.0031037978 124:0.018379513 125:0.0042390237 126:0.017573388 127:0.0093716634 128:0.0058292109 129:-0.00074992329 130:-0.025446704 131:0.003286354 132:0.0041203806 133:-0.014731265 134:-0.0039972672 135:-0.00058372965 136:-0.0072308015 137:-0.0043905606 138:0.0062873634 139:0.011655202 140:-0.0092251021 141:0.0088930847 142:-0.0053518331 143:0.018771468 144:0.010413738 145:-0.0085116429 146:-0.010270431 147:0.0052269674 148:-0.0040078745 149:-0.0019999899 150:0.0083038546 151:0.0085539073 152:-0.0032180995 153:-0.015504417 154:-0.011808497 155:-0.0014388483 156:-0.00062609039 157:-0.00074194348 158:-0.0077249757 159:0.005643025 160:0.0049653412 161:-0.0084861275 162:-0.0064844135 163:-0.0094379429 164:0.0051671206 165:-0.014166281 166:-0.015649542 167:-0.0024024805 168:0.012123954 169:0.02345581 170:0.0055748248 171:-0.011725605 172:-0.0068831998 173:0.0016908745 174:0.0028559915 175:0.0012043383 176:-0.01129714 177:0.0061639375 178:-0.005082116 179:-0.0073406072 180:0.022657279 181:-0.0015452509 182:-0.00321394 183:-0.0068494212 184:-0.011799978 185:-0.0041626398 186:-0.0013137058 187:-0.0053267716 188:0.00026971719 189:0.00042311643 190:0.0080607999 191:0.0014757134 192:-0.0046964036 193:0.018897414 194:-0.00048029574 195:-0.0052129994 196:-0.0035358416 197:-0.0082727605 198:-0.015983386 199:-0.0065735141 200:0.004508276 #
0.0098684210526315783995610075862714 1:-0.010090854 2:0.046692025 3:0.028636251 4:0.18214564 5:0.045383848 6:-0.018461196 7:0.053855669 8:-0.026741778 9:0.050087035 10:0.0067568203 11:0.033893168 12:0.057614155 13:-0.10366335 14:0.084850214 15:-0.03981198 16:0.037959289 17:-0.00092897366 18:-0.02555557 19:0.037219618 20:0.029825147 21:-0.0059660804 22:-0.030104944 23:-0.0065240203 24:0.093805626 25:0.028064283 26:0.057857003 27:0.0046330108 28:-0.017925477 29:-0.029356766 30:-0.02944893 31:0.032280587 32:-0.046491694 33:0.026731497 34:-0.010189228 35:0.018444806 36:-0.0032937308 37:-0.020719122 38:-0.019807812 39:0.02733499 40:0.0099712107 41:-0.0043467875 42:7.4402189e-05 43:0.03877854 44:-0.014823967 45:0.0035376898 46:0.01490727 47:0.018052686 48:0.014086901 49:-0.014449196 50:-0.0078909975 51:-0.033910558 52:-0.0099611869 53:0.0079725133 54:-0.010195398 55:-0.0090079196 56:0.0045418129 57:-0.0026776225 58:-0.012176849 59:-0.00085847639 60:-0.020251643 61:-0.010294585 62:-0.00417329 63:0.0039085462 64:0.014756809 65:0.016797202 66:0.0056611071 67:-0.011911565 68:0.0069285771 69:0.019873664 70:-0.019858399 71:0.0017192636 72:-0.0030185743 73:0.008128278 74:0.00080563803 75:-0.0084141158 76:0.011522081 77:-0.006335556 78:-0.021655289 79:0.0040409123 80:0.014974515 81:0.0074900752 82:-0.0024226075 83:-0.010745008 84:0.0026774001 85:0.017398966 86:-0.00047510851 87:-0.0022539534 88:0.0043469532 89:0.0042149853 90:-0.0010589524 91:-0.01693479 92:0.018789262 93:-0.002254708 94:0.0045640133 95:0.0067236712 96:-0.0036137151 97:0.004567367 98:-0.011543709 99:-0.016414167 100:-0.00046942467 101:0.0030176053 102:-0.0075072614 103:0.00084159122 104:-0.00051997585 105:0.013780208 106:0.00022932468 107:0.00010082118 108:-0.00071804895 109:-0.0037607055 110:-0.00648082 111:0.012217578 112:-0.0024569456 113:0.0045589567 114:-0.0080408594 115:0.00076200539 116:-0.01378291 117:-0.00057402789 118:-0.0037381137 119:-0.003747341 120:0.0018038785 121:-0.0063312161 122:0.00021179626 123:0.0017828068 124:-0.0061019519 125:-0.0059675607 126:0.00043558699 127:0.0021851859 128:-0.0032882055 129:-0.0038892282 130:-0.0049337992 131:-0.0038984804 132:-0.010254867 133:-0.0058925422 134:-0.0093293386 135:0.0082454542 136:-0.017517444 137:-0.0021800408 138:0.0079150461 139:-0.00043326002 140:-0.011663892 141:0.0011714876 142:-0.0081852796 143:0.0066603282 144:-0.00040721608 145:-0.0072952756 146:-0.0072730854 147:-0.00028362864 148:0.002436341 149:-0.0028201963 150:-0.0072410745 151:0.0038834207 152:-0.0053488738 153:0.0057500978 154:0.0038889721 155:0.00090463459 156:-0.0044923546 157:-0.0061848988 158:-0.0024100211 159:-0.0062837075 160:0.012728435 161:-0.0071997708 162:-0.0024943009 163:3.1537002e-06 164:0.00083995675 165:-0.00012977034 166:-0.01474217 167:-0.0079841176 168:0.004552518 169:0.0038155466 170:0.011894907 171:-0.0068360195 172:-0.0098292641 173:0.0008250245 174:0.0039826939 175:-0.0023640553 176:-0.0086554401 177:0.0004753473 178:-0.0011800254 179:0.00086960843 180:0.016596233 181:0.0042873095 182:-0.0010249305 183:-0.0072238478 184:-0.0099436473 185:0.010064296 186:0.0058429725 187:-0.014879445 188:0.0028050025 189:0.00046078712 190:0.00069339597 191:0.0059890631 192:-0.002303526 193:0.013855941 194:0.0019282723 195:0.00041195945 196:-0.010725114 197:-0.0020689827 198:0.0010615076 199:-0.0086232554 200:0.0041330103 #
