SVM-light Version V6.20
0 # kernel type
3 # kernel parameter -d
1 # kernel parameter -g
1 # kernel parameter -s
1 # kernel parameter -r
empty# kernel parameter -u
768 # highest feature index
9 # number of training documents
2 # number of support vectors plus 1
0 # threshold b, each following line is a SV (starting with alpha*y)
1 1:-0.031548843 2:-0.070025884 3:-0.13409582 4:-0.03705129 5:-0.086417295 6:-0.0054228734 7:0.59900498 8:-0.26973456 9:-0.03215789 10:0.2338279 11:0.046567027 12:-0.057672974 13:-0.0066864821 14:-0.024979414 15:0.11132991 16:-0.12034895 17:-0.060531087 18:-0.015593482 19:-0.028533937 20:0.067532487 21:-0.032165758 22:0.12301093 23:0.057376806 24:0.037074152 25:0.022058537 26:0.23516572 27:0.056610748 28:-0.12329879 29:0.032355517 30:-0.0059356666 31:0.28789532 32:0.094338939 33:-0.13356826 34:0.030890347 35:0.019209096 36:-0.12794971 37:-0.056484081 38:-0.19730413 39:-0.21710472 40:0.018909866 41:-0.2186027 42:-0.35157692 43:-0.41090268 44:0.021712516 45:0.58723444 46:0.13897392 47:-0.27579445 48:0.35569277 49:0.034727119 50:-0.13783325 51:-0.11879416 52:0.37166533 53:0.15905879 54:-0.37915879 55:0.0039703548 56:-0.2903308 57:0.215528 58:-0.4100911 59:0.1405286 60:0.095631525 61:-0.060872909 62:-0.11822464 63:0.00319407 64:-0.096555322 65:-0.27295563 66:0.046371706 67:0.15068613 68:-0.12735255 69:0.18391725 70:0.13148063 71:0.035172328 72:-0.013236947 73:0.034107734 74:0.15610863 75:0.033850376 76:0.053195421 77:-0.13762701 78:0.27491817 79:0.31020525 80:-0.23410544 81:0.037082627 82:0.21719953 83:0.0041742651 84:0.21681482 85:-0.18078038 86:0.032206427 87:-0.017427402 88:-0.21810019 89:-0.083301581 90:-0.26964775 91:0.023591649 92:0.18905827 93:0.20568131 94:-0.06031023 95:-0.25118479 96:-0.15834525 97:0.060678817 98:-0.13443282 99:-0.023954051 100:0.31402636 101:-0.081588633 102:0.14412247 103:-0.11224185 104:0.039517909 105:-0.019730035 106:0.00054072792 107:0.098948471 108:0.26402235 109:0.020702219 110:0.052324161 111:-0.047887977 112:-0.09371648 113:0.0053976355 114:0.27415091 115:0.10650641 116:-0.60558009 117:0.14926547 118:-0.15711583 119:-0.18036264 120:-0.12374029 121:0.046914082 122:0.074450135 123:-0.17150478 124:0.0094089592 125:0.15934753 126:-0.058198426 127:0.10416272 128:0.0012093178 129:-0.38270727 130:0.071405217 131:0.096457705 132:-0.063877873 133:-0.28693745 134:0.12631427 135:-0.03303054 136:0.25653842 137:0.070502922 138:0.002434839 139:0.12126608 140:-0.071544535 141:0.20200558 142:0.20309788 143:0.044171855 144:0.11685708 145:0.032195359 146:-0.064610593 147:-0.0055939313 148:-0.0017421853 149:-0.18486279 150:0.031368669 151:0.15973826 152:0.12653017 153:-0.185357 154:0.0098690847 155:0.080199853 156:-0.21662503 157:0.25411728 158:-0.37027034 159:-0.069406442 160:-0.035416171 161:-0.1582039 162:0.092913225 163:0.17101288 164:-0.12525572 165:0.087989762 166:-0.097448811 167:0.2713359 168:-0.00014643896 169:-0.26014704 170:0.054287523 171:-0.21615623 172:-0.019939173 173:-0.12153124 174:0.19144696 175:0.41051403 176:0.17439958 177:-0.088170767 178:0.35949114 179:-0.12576878 180:-0.050687399 181:0.076597326 182:-0.11135954 183:0.34746054 184:0.092738703 185:-0.078316823 186:-0.044400293 187:0.024526553 188:0.33348644 189:0.51636392 190:-0.062562346 191:0.21254982 192:0.34914201 193:0.26755098 194:-0.081917375 195:0.071825117 196:0.085755564 197:-0.16737635 198:0.21227004 199:0.18450595 200:0.14045717 201:-0.0011483652 202:0.040930644 203:0.0051088966 204:0.10376024 205:0.19980368 206:-0.20319189 207:-0.14129561 208:-0.070363954 209:-0.089251697 210:-0.0048081269 211:0.078833543 212:-0.056148101 213:0.13292506 214:-0.10190845 215:0.13704214 216:-0.0033092799 217:0.016164714 218:0.45320028 219:-0.15977031 220:-0.035763055 221:-0.065595336 222:0.0046429639 223:-0.071805567 224:0.031178828 225:0.13372236 226:-0.15018573 227:-0.083654039 228:-0.026010172 229:0.041941304 230:0.1865945 231:0.079043135 232:-0.075292446 233:0.10762578 234:0.070382029 235:-0.058104221 236:-0.16188209 237:0.50175989 238:0.23965774 239:-0.0090478128 240:0.10522082 241:0.076594271 242:-0.088831246 243:0.11647113 244:-0.18713495 245:-0.0036066324 246:-0.022411695 247:-0.097999282 248:-0.1098813 249:0.10128324 250:-0.25060961 251:-0.11437311 252:0.16774948 253:0.23592657 254:-0.36717939 255:-0.26429734 256:-0.2071259 257:0.2273301 258:0.078900054 259:0.12371504 260:-0.21241014 261:-0.048328243 262:0.22396007 263:-0.073130399 264:-0.075794704 265:-0.25323111 266:-0.19660386 267:-0.024861073 268:-0.28713357 269:-0.30437195 270:0.013287704 271:0.020522507 272:0.12799859 273:0.23633419 274:-0.039582931 275:0.1171566 276:-0.07576374 277:0.11355589 278:-0.24508007 279:0.1152 280:-0.015991131 281:-0.0647901 282:-0.10402945 283:-0.10588025 284:-0.34979206 285:0.13237064 286:0.0097805457 287:-0.25711527 288:0.11679768 289:-0.16682065 290:0.08214628 291:-0.29032621 292:-0.042691983 293:0.012191401 294:-0.010290757 295:-0.04964425 296:0.023295252 297:-0.11389719 298:0.029076993 299:-0.2613869 300:0.040056609 301:0.028705399 302:-0.071549021 303:0.034830682 304:-0.39232641 305:-0.23719843 306:-0.092940614 307:-0.023505237 308:-0.084522113 309:0.19733869 310:-0.20209825 311:-0.061241906 312:-0.065911524 313:-0.11174191 314:-0.10231191 315:0.023514951 316:-0.091437764 317:0.3453936 318:0.020195067 319:-0.13249648 320:-0.1711088 321:0.32213613 322:-0.071425825 323:0.19269663 324:0.041341741 325:-0.18787883 326:0.033253644 327:-0.055702105 328:0.12470054 329:-0.0080378996 330:-0.20071992 331:-0.26997611 332:0.055879097 333:0.21556422 334:-0.12661774 335:-0.094858937 336:-0.02465078 337:0.21965131 338:-0.065139942 339:0.093569539 340:0.045565456 341:0.08898253 342:0.43675157 343:-0.10429142 344:0.010590818 345:0.19152808 346:0.079623431 347:0.045297835 348:-0.22713326 349:-0.15294404 350:0.26341373 351:-0.16014217 352:-0.3054235 353:0.3065531 354:-0.050757688 355:0.23367478 356:0.068721369 357:-0.075249024 358:-0.3884168 359:-0.076553807 360:-0.0090428358 361:0.17055154 362:-0.064352989 363:0.066389903 364:0.027684776 365:-0.21344076 366:0.014801376 367:-0.14216225 368:-0.1199329 369:0.20431481 370:-0.20468436 371:0.097650468 372:0.10977277 373:0.069071949 374:-0.11356619 375:0.17956409 376:0.10081843 377:0.040273391 378:-0.13169542 379:-0.010870285 380:0.1570309 381:0.017686475 382:0.053550422 383:0.052789461 384:0.22466461 385:0.14547871 386:0.036153391 387:-0.31575471 388:-0.023773761 389:0.14598157 390:-0.11970462 391:-0.20137252 392:0.069116741 393:0.099798761 394:-0.011286525 395:-0.16012163 396:-0.13251299 397:0.02077629 398:-0.08349558 399:-0.049365718 400:-0.033854038 401:0.19645368 402:0.037306443 403:0.086788826 404:0.14102864 405:-0.16576859 406:0.2871916 407:-0.23345172 408:-0.025306206 409:0.16180027 410:-0.058145992 411:-0.23757087 412:-0.10907004 413:0.16518125 414:-0.19503893 415:0.36926603 416:-0.039029576 417:0.062059958 418:-0.11020584 419:-0.23562498 420:-0.13400982 421:-0.13281465 422:-0.19743946 423:0.14740226 424:-0.038815308 425:0.10865706 426:-0.10118403 427:0.11686388 428:0.18230166 429:0.013146648 430:0.15086833 431:0.071671724 432:-0.065845199 433:0.36214477 434:-0.025860546 435:0.11389828 436:0.052732259 437:0.16507867 438:-0.13609548 439:0.0088862553 440:-0.18330607 441:-0.14904776 442:-0.12605487 443:0.048962805 444:0.012015645 445:-0.15443446 446:0.080361612 447:-0.13920128 448:0.15260138 449:-0.10730119 450:0.17246932 451:-0.068778776 452:-0.0195926 453:0.23372835 454:-0.095543534 455:-0.27470475 456:-0.17209791 457:-0.27963576 458:0.27643216 459:0.031833187 460:-0.30613872 461:0.32103941 462:-0.00770876 463:-0.023385383 464:-0.10713052 465:-0.1530785 466:-0.094731823 467:-0.12983944 468:0.28982511 469:0.066394888 470:-0.0015284508 471:0.15111639 472:0.089275211 473:0.32175678 474:0.58723062 475:-0.34543777 476:0.056897972 477:-0.17384161 478:-0.17449501 479:-0.19054602 480:0.026302293 481:0.018540505 482:0.18687712 483:-0.047148738 484:0.18050081 485:-0.10367885 486:-0.0092920596 487:-0.061564453 488:-0.011359958 489:0.36291766 490:-0.019908901 491:-0.30328688 492:0.032106869 493:-0.098515481 494:-0.03583236 495:0.12005135 496:-0.33533978 497:-0.066623352 498:0.10988397 499:0.021912057 500:-0.098775394 501:-0.086447671 502:-0.040438548 503:0.019854292 504:0.090538941 505:-0.18092071 506:-0.034184013 507:0.18659271 508:-0.21238939 509:-0.16636041 510:0.010154153 511:-0.044519119 512:0.036545381 513:0.041407343 514:-0.048669141 515:0.13881721 516:0.036622118 517:-0.22618155 518:0.21553952 519:-0.2779831 520:-0.50369197 521:-0.050146282 522:0.075968936 523:0.19376774 524:0.038441442 525:0.16533063 526:-0.17033891 527:0.041264612 528:-0.14222898 529:-0.1161002 530:-0.3750461 531:-0.21932366 532:0.07250116 533:-0.11581492 534:0.20716782 535:-0.22015274 536:0.084692165 537:0.021085255 538:0.047820304 539:0.050239205 540:-0.037793394 541:-0.18877259 542:0.056213696 543:-0.13958377 544:0.11994351 545:0.18780169 546:-0.04654932 547:-0.06194431 548:-0.22371203 549:0.24087137 550:0.033828095 551:0.19567059 552:0.24880156 553:-0.12484957 554:0.34056246 555:-0.30104411 556:0.26458874 557:-0.15851304 558:-0.05688994 559:0.11162717 560:-0.042576939 561:-0.094385736 562:0.18853751 563:-0.20208319 564:-0.20163138 565:-0.11548624 566:0.17808874 567:0.011798843 568:-0.16037162 569:-0.11520839 570:0.15019971 571:-0.097274087 572:-0.054572873 573:0.16760969 574:0.21361172 575:-0.22356473 576:0.076709777 577:0.12247129 578:0.13862339 579:-0.18972047 580:-0.1184959 581:0.22534205 582:0.22449531 583:0.023385016 584:-0.11800706 585:0.4054808 586:-0.016609322 587:0.027086966 588:0.19586937 589:0.0047904453 590:-0.048424672 591:0.16184494 592:0.049960926 593:0.1695742 594:0.022554286 595:0.17648019 596:-0.13459426 597:0.14921658 598:0.26732567 599:0.043426678 600:-0.1530716 601:-0.16278493 602:0.067719668 603:0.2679939 604:-0.067442104 605:0.21208282 606:0.073210031 607:0.24856873 608:-0.037202809 609:-0.34192848 610:-0.14222668 611:-0.34079701 612:0.05586265 613:0.012330679 614:0.03758011 615:0.14702104 616:-0.060352884 617:-0.11524858 618:0.018959412 619:0.10533953 620:0.0066132704 621:0.15087102 622:-0.05237852 623:0.0087132361 624:-0.11232303 625:0.19107656 626:-0.12560846 627:0.21657735 628:0.17379194 629:-0.10886227 630:-0.13306828 631:-0.24420176 632:-0.11616632 633:-0.028009202 634:0.19305125 635:-0.36969736 636:0.18469194 637:-0.20275789 638:0.012979512 639:-0.098998107 640:-0.055706412 641:0.13853848 642:0.19653639 643:0.14642102 644:-0.19727008 645:-0.38041174 646:-0.2532571 647:-0.049192868 648:0.012727433 649:-0.077013589 650:-0.15661895 651:0.01350638 652:-0.31814343 653:-0.049019177 654:0.068463832 655:0.27839929 656:0.035000958 657:0.24625792 658:0.19072033 659:-0.047964446 660:0.17198995 661:0.1624871 662:-0.083295569 663:-0.13045305 664:-0.027911175 665:-0.263935 666:0.18212231 667:-0.14769837 668:0.23537096 669:-0.29839352 670:-0.11893848 671:-0.20619577 672:0.087431185 673:-0.2985774 674:-0.078101456 675:0.062672406 676:-0.19922192 677:0.16783591 678:0.008253553 679:0.2438025 680:-0.02788288 681:0.024392381 682:-0.22367927 683:0.082391776 684:-0.36731213 685:-0.14655708 686:0.04478243 687:-0.17886496 688:-0.059747946 689:0.12544648 690:-0.042007823 691:0.19378105 692:-0.34463912 693:0.045754354 694:-0.010284734 695:0.060987372 696:0.14559962 697:-0.027159564 698:0.019762265 699:0.19089632 700:-0.19636841 701:0.23819822 702:0.075733773 703:-0.01851956 704:-0.02903248 705:0.28571662 706:0.012550841 707:0.018763345 708:-0.018468512 709:-0.068998955 710:-0.21701595 711:0.16547553 712:0.21796519 713:-0.15054621 714:0.19573532 715:-0.26306346 716:0.079938278 717:-0.1064426 718:-0.051606841 719:0.22061527 720:-0.15675738 721:0.16419068 722:0.091931447 723:-0.073715463 724:0.028539719 725:-0.12561865 726:0.06467101 727:0.1156147 728:0.29523352 729:0.079451226 730:-0.23690398 731:0.24326 732:0.34074265 733:-0.13238634 734:-0.19895394 735:-0.15283437 736:0.13790591 737:-0.0082989093 738:0.041735366 739:-0.11049498 740:0.033931814 741:-0.046956781 742:0.034691237 743:-0.17538059 744:0.23382661 745:-0.20369332 746:0.18904163 747:-0.075495705 748:0.014731115 749:-0.02596746 750:-0.080451258 751:0.014967085 752:0.047406502 753:-0.1721907 754:0.27519515 755:-0.042617619 756:0.0097697005 757:-0.10771892 758:-0.14289567 759:0.21409127 760:-0.0036809426 761:0.094405003 762:-0.071163431 763:0.17733298 764:0.029983627 765:-0.013608485 766:0.035785671 767:0.10583815 #
